tree
version=v4
num_class=1
num_tree_per_iteration=1
label_index=0
max_feature_idx=17
objective=binary sigmoid:1
feature_names=Column_0 Column_1 Column_2 Column_3 Column_4 Column_5 Column_6 Column_7 Column_8 Column_9 Column_10 Column_11 Column_12 Column_13 Column_14 Column_15 Column_16 Column_17
feature_infos=[17:95] [-526588231683.22998:1236431815281.3301] [-499.89999999999998:499.89999999999998] [0.1029224904701397:2.0831525668835864] [0.0099547511312216997:14.647058823529411] [0:4] [-0.96399999999999997:0.96399999999999997] [-0.39735418338712331:0.30859524138405942] [0:99.998013650376222] [41.835063362121581:54265.870312500003] [41.451471337443031:54355.950891023131] [-12.953451435247128:0.45269623601666281] [-0.14658769249585071:6.5540903682616261] [0:1] [0:34] [0:100] [0:500] [0:2208.2412903244849]
tree_sizes=3523 3546 3541 3518 3541 3526 3510 3571 3544 3543 3529 3524 3504 3584 3537 3546 3536 3541 3535 3548 3540 3557 3545 3536 3532 3537 3531 3519 3550 3574 3604 3537 3557 3526 3562 3565 3527 3565 3554 3552 3545 3531 3555 3553 3553 3559 3545 3550 3553 3545 3531 3513 3555 3521 3534 3542 3547 3554 3552 3545 3521 3551 3563 3551 3524 3567 3534 3545 3569 3530 3556 3526 3572 3574 3548 3546 3527 3516 3522 3552 3568 3561 3565 3549 3537 3514 3518 3557 3544 3516 3560 3541 3527 3521 3499 3509 3573 3550 3512 3535 3517 3531 3518 3533 3515 3516 3538 3553 3511 3532 3527 3525 3496 3550 3504 3541 3478 3519 3490 3511 3526 3519 3485 3502 3456 3485 3511 3463 3488 3544 3505 3540 3487 3503 3511 3426 3508 3499 3502 3447 3459 3478 3497 3503 3439 3454 3475 3474 3487 3514 3507 3439 3537 3443 3486 3465 3469 3460 3437 3426 3377 3469 3459 3479 3452 3429 3433 3403 3458 3424 3458 3470 3534 3471 3457 3424 3451 3492 3426 3449 3483 3474 3511 3470 3424 3405 3439 3438 3377 3509 3473 3463 3431 3510 3480 3408 3399 3399 3508 3452 3460 3528 3419 3467 3446 3456 3442 3418 3441 3448 3423 3411 3416 3429 3489 3448 3479 3473 3457 3493 3512 3471 3452 3451 3485 3460 3473 3414 3411 3464 3486 3441 3446 3532 3435 3446 3406 3448 3466 3438 3465 3464 3441 3474 3459 3493 3454 3439 3472 3467 3500 3435 3469 3476 3425 3412 3475 3392 3429 3389 3513 3441 3502 3442 3437 3466 3508 3442 3461 3448 3472 3439 3448 3436 3464 3444 3407 3486 3446 3444 3476 3525 3450 3448 3442 3497 3470 3408 3456 3436 3448 3476 3521 3485 3492 3453 3454 3488 3465 3507

Tree=0
num_leaves=31
num_cat=0
split_feature=2 3 0 0 17 17 1 16 1 1 1 14 1 1 1 17 15 12 9 14 12 10 3 17 0 17 16 17 14 10
split_gain=67676.5 45792.8 33014.9 20505.2 5769.55 3579.55 2398.89 3856.88 3124.61 1745.75 2933.04 1548.05 1524.76 1752.84 1188.53 2295.92 1044.36 1345.66 973.246 846.388 711.251 662.887 562.359 473.571 376.911 329.884 309.247 293.861 282.385 277.5
threshold=-1.9900166274046496 0.70031269337459767 63.500000000000007 58.500000000000007 29.867795545653344 29.867795545653344 1.0000000180025095e-35 1.0000000180025095e-35 -1.0000000180025095e-35 548841.53500000015 -433052.35999999993 1.0000000180025095e-35 548841.53500000015 -1.0000000180025095e-35 -1.0000000180025095e-35 23.045893967608514 51.250000000000007 1.5081717440163118 12216.919921875002 3.5000000000000004 4.6829171872251409 12220.348154929083 1.4146194552259452 19.845526782240249 77.500000000000014 3.8457207986322124 1.0000000180025095e-35 1944.6209244792419 5.5000000000000009 11226.410984347811
decision_type=2 2 2 2 2 2 2 2 2 2 2 2 2 2 2 2 2 2 2 2 2 2 2 2 2 2 2 2 2 2
left_child=1 4 9 6 11 26 7 14 -9 10 -3 -1 13 -13 -2 -16 -17 -18 -10 29 27 28 -4 -14 -24 -21 -5 -19 -12 -15
right_child=3 2 22 5 -6 -7 -8 8 18 -11 21 12 23 19 15 16 17 20 -20 25 -22 -23 24 -25 -26 -27 -28 -29 -30 -31
leaf_value=0.086841147169419 -0.099995662173111524 -0.094635266975986135 0.057022802396350269 -0.049916790888305175 -0.032113079916926662 -0.097222376922921488 -0.097195947206548491 -0.094118467286148561 -0.01741075260880837 -0.098038251875815233 -0.06148179844104449 0.053151864246038572 0.051511322184815148 -0.05077790643257734 0.0090893165532194078 -0.054842350275907815 -0.098710685631738862 -0.020054726419499503 0.074818087396501948 -0.011770706320154744 -0.07118536834254531 0.076087996426435309 -0.089700764370720915 0.025749555472366497 0.053069376954625984 0.023522612039308062 0.055760873021810452 0.099730354377487312 -0.017681257263182246 0.060497303905756673
leaf_weight=2518.3095621317625 3477.8587746620178 2961.4399511367083 6039.5179408043623 70.349722653627396 2306.8234395235777 434.45827662944794 9514.3525695055723 589.13803979754448 424.72208902239799 8610.4984725266695 469.38325166702271 4222.173540815711 45471.270972937346 637.50352762639523 918.97141888737679 4875.3512261807919 5169.6181484311819 642.8111482411623 875.2316603064537 789.37209226191044 1568.0837155133486 167.38455027341843 111.00462354719639 1857.8992853313684 79.037315025925636 4098.7723468244076 3917.8340342640877 55.523421317338943 1705.7499508559704 61.30239725112915
leaf_count=8297 16736 14122 21361 310 9829 2081 45568 2807 1759 41298 2112 15066 162862 2813 3608 21673 24823 2676 2969 3233 7179 566 525 7043 282 15612 13897 177 7068 215
internal_value=2.49523e-08 0.0241823 -0.041307 -0.0610291 0.0454727 0.0390464 -0.0767737 -0.0663249 0.00139001 -0.0841368 -0.0615668 0.0484729 0.0467816 0.0288385 -0.0739813 -0.0671418 -0.0728324 -0.0846258 0.0446821 0.010463 -0.0524936 -0.0197568 0.0543576 0.0505002 -0.0303005 0.0178221 0.0538943 -0.0105107 -0.0271379 -0.0410019
internal_weight=114642 82107.4 20144 32534.3 61963.4 4422.64 28111.7 18597.3 1889.09 13914.5 5303.96 59656.6 57138.3 9809.12 16708.2 13230.4 12311.4 7436.04 1299.95 5586.95 2266.42 2342.52 6229.56 47329.2 190.042 4888.14 3988.18 698.335 2175.13 698.806
internal_count=458567 312304 87334 146263 224970 16288 129975 84407 7535 65166 23868 215141 206844 36939 76872 60136 56528 34855 4728 21873 10032 9746 22168 169905 807 18845 14207 2853 9180 3028
is_linear=0
shrinkage=1


Tree=1
num_leaves=31
num_cat=0
split_feature=2 0 0 0 5 5 1 17 15 9 15 17 15 1 7 1 12 17 17 12 2 1 1 17 10 17 7 17 17 7
split_gain=61172.8 18544.6 17648.8 49543.4 8119.58 5401.76 3798.42 3235.29 2470.05 1822.97 1779.35 1558.89 1338.7 1064.59 1011.7 996.866 996.761 821.598 711.342 638.864 503.895 357.925 1689.32 350.235 526.996 324.379 311.201 296.354 290.024 251.277
threshold=-1.9900166274046496 58.500000000000007 40.500000000000007 58.500000000000007 2.5000000000000004 2.5000000000000004 1.0000000180025095e-35 29.867795545653344 50.100000000000009 12216.919921875002 50.100000000000009 29.867795545653344 49.900000000000006 -1.0000000180025095e-35 0.00040390279163284032 -1.0000000180025095e-35 1.5081717440163118 7.1713031602955093 29.867795545653344 4.6829171872251409 -188.62227362560668 -1.0000000180025095e-35 28991.305000000004 3.8457207986322124 11226.410984347811 8.7316819060620379 -1.0000000180025095e-35 112.37219337118565 19.845526782240249 -1.0000000180025095e-35
decision_type=2 2 2 2 2 2 2 2 2 2 2 2 2 2 2 2 2 2 2 2 2 2 2 2 2 2 2 2 2 2
left_child=2 5 18 4 10 6 8 -3 9 13 12 -6 25 -2 26 -11 -7 -12 21 29 -14 -1 -23 24 -22 -4 -5 -15 -24 -18
right_child=1 7 3 14 11 16 -8 -9 -10 15 17 -13 20 27 -16 -17 19 -19 -20 -21 23 22 28 -25 -26 -27 -28 -29 -30 -31
leaf_value=0.060939702294933035 -0.095289238262003625 0.051239887202033457 -0.09059184536727094 0.0015589597865394464 -0.094708562803767618 -0.094413829744636371 -0.090127195991381526 -0.092584612725711238 -0.083506178119526167 -0.074913521706962347 -0.088735816672205758 -0.03263317459201074 -0.042218407168424607 -0.0032957281657331758 -0.053477422928491641 0.071178837027551678 -0.098299925588240952 -0.032282141692062775 -0.032995601787276799 -0.075384920979244832 -0.025808785143702634 0.0026820484390570531 0.048641994309831904 0.017718417724606455 0.065905531563045142 -0.035293141854386291 0.053787907370671288 -0.030019690452400417 0.025776074966223389 -0.0056271960131942496
leaf_weight=3900.56896302104 452.7563067227602 3985.0959935486317 449.68146839737892 289.36078096926212 9428.6191661953926 15372.551122695208 3114.622892588377 433.43326127529144 1396.5387432426214 134.65522345900536 1158.1417045891285 1133.3485233485699 547.40960603952408 2444.6907058358192 225.02384853363037 874.00799798965454 83.928290903568268 1454.3173733204603 283.02483901381493 1816.9609097391367 1128.3050456643105 2216.6439919471741 33531.373190641403 3125.7478034198284 181.75618202984333 647.87333472073078 20885.192102491856 1802.7079847455025 1447.9375740587711 566.12557616829872
leaf_count=13590 2184 14207 2150 1153 45422 74005 14891 2081 6595 627 5520 4859 2381 9872 1004 2969 404 6221 1212 8438 4760 8815 120261 12038 626 2785 74034 7696 5473 2294
internal_value=-6.97433e-07 -0.0580805 0.0229936 -0.000403696 -0.0585919 -0.0730733 -0.0440873 0.0371286 -0.0239041 -0.00932163 -0.0228022 -0.0880484 -0.00797384 -0.0224114 0.0519535 0.0516652 -0.0896783 -0.0573132 0.0459811 -0.0601655 0.00303566 0.0465252 0.0450133 0.00862228 -0.0130766 -0.0579604 0.0530744 -0.0146397 0.0476957 -0.0176131
internal_weight=114512 32478.1 82034.3 40654.8 19255.2 28059.5 10220 4418.53 7105.36 5708.82 8693.23 10562 6080.77 4700.15 21399.6 1008.66 17839.6 2612.46 41379.5 2467.01 4983.22 41096.5 37196 4435.81 1310.06 1097.55 21174.6 4247.4 34979.3 650.054
internal_count=458567 146263 312304 162953 86762 129975 44834 16288 29943 23348 36481 50281 24740 19752 76191 3596 85141 11741 149351 11136 19805 148139 134549 17424 5386 4935 75187 17568 125734 2698
is_linear=0
shrinkage=0.05


Tree=2
num_leaves=31
num_cat=0
split_feature=2 3 5 17 16 15 15 9 14 1 1 11 14 11 5 15 5 16 17 13 16 15 15 11 10 15 17 14 15 9
split_gain=55450.7 37597.2 5175.19 4710.66 2927.69 1850.6 1672.72 2253.91 1400.41 1249.44 1391.74 898.612 751.319 628.007 553.615 496.853 857.906 409.945 395.26 383.489 343.771 335.81 724.555 304.146 284.138 402.877 280.216 271.106 263.799 246.258
threshold=-1.9900166274046496 0.70031269337459767 2.5000000000000004 29.867795545653344 4.3610733757455877 50.100000000000009 49.900000000000006 12216.919921875002 1.0000000180025095e-35 548841.53500000015 -1.0000000180025095e-35 -0.37282265937539422 3.5000000000000004 -6.5133562060136851 1.5000000000000002 20.650000000000002 2.5000000000000004 1.0000000180025095e-35 19.845526782240249 1.0000000180025095e-35 10.026420182699697 49.900000000000006 50.100000000000009 -0.0005246826972427857 12220.348154929083 51.250000000000007 4.207903265094461 5.5000000000000009 46.95000000000001 12216.919921875002
decision_type=2 2 2 2 2 2 2 2 2 2 2 2 2 2 2 2 2 2 2 2 2 2 2 2 2 2 2 2 2 2
left_child=1 3 5 8 11 6 17 14 -1 10 -10 13 29 -4 -8 -3 24 -2 -11 -19 -7 -18 -23 28 27 -26 -14 -17 -6 -12
right_child=2 15 4 -5 23 20 7 -9 9 18 12 -13 26 -15 -16 16 21 19 -20 -21 -22 22 -24 -25 25 -27 -28 -29 -30 -31
leaf_value=0.080479524414935361 -0.091525666300188435 -0.024514714140721233 -0.072398760379272314 -0.028956825242200696 -0.032490901737567135 -0.080506112031842728 -0.091245621943333952 0.06479450976298376 0.047747847597318677 0.046588303218723384 -0.047412916985090058 -0.09085278720389095 -0.0076207065766936673 -0.014927314305720141 -0.012451139889659756 -0.036938716817813931 -0.0392325856350135 -0.07104719694840976 0.023041653233304624 -0.029322699529113073 -0.047800113486660439 -0.088418702462872215 -0.048135527915632415 -0.081514179696033529 0.063653302292330433 -0.0466137148424626 0.022521427875098879 -0.0098400349079231144 -0.053569587013794356 0.064029746995857048
leaf_weight=2506.5600604563951 420.15991814434528 5295.6487972438335 1823.9852575957775 2304.4008803516626 3665.1675095111132 1439.7854115366936 235.25838324427605 1050.3468413054943 4209.042078986764 45354.811284482479 644.48621700704098 10873.966311335564 959.06765097379684 643.25744500756264 4230.5142615139484 2710.669103294611 4101.5104491561651 715.02595493197441 1856.3317882269621 2400.791785389185 1822.4384996145964 1464.417685136199 4703.9510841369629 502.20793308317661 206.91259381175041 137.95972581207752 3927.4835455417633 1400.4476292580366 2498.0994446724653 53.578300297260284
leaf_count=8297 2040 22481 8511 9829 15832 6845 1135 3613 15066 162862 2843 52735 3902 2662 17455 11788 17959 3346 7043 10298 8127 7072 20973 2394 716 615 14943 5730 11270 185
internal_value=-3.35689e-06 0.0218962 -0.0554535 0.0411835 -0.0711504 -0.0299505 -0.0183134 -0.00110369 0.0438996 0.042291 0.0260368 -0.0846704 0.00967203 -0.0574181 -0.0166051 -0.0376523 -0.0423763 -0.0451582 0.0456626 -0.0389013 -0.0622385 -0.0503262 -0.0577011 -0.0440878 -0.0240519 0.0195278 0.0166045 -0.0277093 -0.0410361 -0.0388443
internal_weight=114158 81837.3 32321 61815.8 20006.7 12314.3 9052.1 5516.12 59511.4 57004.8 9793.66 13341.2 5584.62 2467.24 4465.77 20021.5 14725.9 3535.98 47211.1 3115.82 3262.22 10269.9 6168.37 6665.47 4455.99 344.872 4886.55 4111.12 6163.27 698.065
internal_count=458567 312304 146263 224970 93404 52859 37887 22203 215141 206844 36939 63908 21873 11173 18590 87334 64853 15684 169905 13644 14972 46004 28045 29496 18849 1331 18845 17518 27102 3028
is_linear=0
shrinkage=0.05


Tree=3
num_leaves=31
num_cat=0
split_feature=2 3 0 0 5 17 1 17 15 9 5 15 1 11 15 1 17 1 1 11 3 10 2 0 17 3 2 17 17 0
split_gain=50302.9 34027.4 27152.4 16633.7 4526.8 4265.04 3357.56 2874.42 2049.08 1503.77 1462.34 1130.41 910.317 886.311 862.319 825.325 796.092 661.409 2669.2 570.581 492.424 446.899 374.367 329.217 303.284 286.135 473.016 267.253 235.471 230.737
threshold=-1.9900166274046496 0.70031269337459767 63.500000000000007 58.500000000000007 2.5000000000000004 29.867795545653344 1.0000000180025095e-35 29.867795545653344 50.100000000000009 12216.919921875002 2.5000000000000004 50.100000000000009 -1.0000000180025095e-35 -0.37282265937539422 49.250000000000007 -1.0000000180025095e-35 29.867795545653344 28991.305000000004 -1.0000000180025095e-35 -6.5133562060136851 1.4146194552259452 12220.348154929083 -182.16293063386721 77.500000000000014 19.845526782240249 1.306439708506812 2.136920385831131 112.37219337118565 4.207903265094461 49.500000000000007
decision_type=2 2 2 2 2 2 2 2 2 2 2 2 2 2 2 2 2 2 2 2 2 2 2 2 2 2 2 2 2 2
left_child=1 5 10 4 6 17 8 25 9 12 11 14 -2 19 -3 -11 -12 18 -1 -6 -4 -16 -20 -22 -19 -5 -27 -14 -24 -8
right_child=3 2 20 7 13 -7 29 -9 -10 15 16 -13 27 -15 21 -17 -18 24 22 -21 23 -23 28 -25 -26 26 -28 -29 -30 -31
leaf_value=0.055699656910629572 -0.088320499045034195 -0.084980744265569619 0.053324862660693167 0.053782475924858353 -0.069177021306492711 -0.027540977649697797 -0.089668880246893679 -0.085981656405295259 -0.076460661450813386 -0.068657594597471658 -0.088783925826651067 -0.082402472956599013 -0.0024471745453463062 -0.087202214391273125 -0.01824146016463107 0.065035574533970505 -0.031103247855361123 0.045186559639235888 -0.031675317428062115 -0.014338236410599062 -0.084189452287320443 0.068407661286151708 -0.0090359137567624717 0.049417913288810872 0.025091362032455655 -0.065664999666450619 0.077550202350805203 -0.027839692806542828 0.016824822357785776 -0.049297317711406052
leaf_weight=5500.881775483489 445.81737603247166 493.20023335516453 6030.7269674241543 3748.2037610411644 1806.9840655475855 2301.7934984266758 2670.4167918115854 427.51488697528839 1377.5304301828146 133.08083043992519 9338.6911333501339 1492.0452770292759 2443.9031609892845 15132.087785586715 1627.861564680934 865.58092927932739 639.57455606758595 46200.204296782613 567.67342579364777 643.56621709465981 110.53606261312962 163.66143420338631 1129.2054846435785 78.915754809975624 1958.7730125039816 132.04327712953091 102.17616547644138 1799.5360491126776 3987.8038622140884 409.15871550142765
leaf_count=19296 2184 2374 21361 13267 8485 9829 13025 2081 6595 627 45521 7154 9872 73991 6793 2969 2767 166078 2426 2665 525 557 4613 282 7385 598 342 7696 15343 1866
internal_value=-5.01778e-06 0.020858 -0.0358557 -0.052992 -0.0673376 0.039235 -0.0407395 0.037205 -0.0217477 -0.00849499 -0.0750568 -0.0485525 -0.0203601 -0.0826838 -0.0264418 0.0472096 -0.0850876 0.0418251 0.0308703 -0.0547784 0.0508311 -0.0103196 0.00684231 -0.0285125 0.0443694 0.0504322 -0.00316086 -0.0132171 0.0111169 -0.0843084
internal_weight=113759 81621.5 19975.2 32137.6 27727.7 61646.3 10145 4409.94 7065.45 5687.92 13755 3776.77 4689.26 17582.6 2284.72 998.662 9978.27 59344.5 11185.6 2450.55 6220.18 1791.52 5684.68 189.452 48159 3982.42 234.219 4243.44 5117.01 3079.58
internal_count=458567 312304 87334 146263 129975 224970 44834 16288 29943 23348 65166 16878 19752 85141 9724 3596 48288 215141 41678 11150 22168 7350 22382 807 173463 14207 940 17568 19956 14891
is_linear=0
shrinkage=0.05


Tree=4
num_leaves=31
num_cat=0
split_feature=2 0 0 0 5 5 1 14 17 15 9 17 14 1 12 1 2 17 11 13 1 1 17 0 14 15 17 17 8 17
split_gain=45786.5 15189.3 12957.7 39130.2 6480.78 4201.24 3088.79 2966.43 2611.6 1877.35 1365.04 1334.23 1288.87 838.228 837.337 751.271 706.503 607.432 530.014 488.033 368.412 738.91 339.916 312.787 378.801 326.854 271.406 244.096 234.695 226.048
threshold=-1.9900166274046496 58.500000000000007 40.500000000000007 58.500000000000007 2.5000000000000004 2.5000000000000004 1.0000000180025095e-35 3.5000000000000004 29.867795545653344 50.100000000000009 12216.919921875002 29.867795545653344 1.0000000180025095e-35 -1.0000000180025095e-35 1.5081717440163118 -1.0000000180025095e-35 -188.62227362560668 29.867795545653344 -6.5133562060136851 1.0000000180025095e-35 548841.53500000015 -1.0000000180025095e-35 3.8457207986322124 63.500000000000007 1.0000000180025095e-35 57.350000000000001 19.845526782240249 108.55981697714721 46.33039195982996 2.8730363727560269
decision_type=2 2 2 2 2 2 2 2 2 2 2 2 2 2 2 2 2 2 2 2 2 2 2 2 2 2 2 2 2 2
left_child=2 5 12 4 7 6 9 19 -3 10 13 -6 -1 -2 -7 -12 -9 20 -16 -4 21 -14 -18 25 -25 -5 -22 29 -20 -15
right_child=1 8 3 23 11 14 -8 16 -10 -11 15 -13 17 27 18 -17 22 -19 28 -21 26 -23 -24 24 -26 -27 -28 -29 -30 -31
leaf_value=0.081824502384988396 -0.085080406867901109 0.048039801280692213 -0.026266417110404356 -0.016968891277672277 -0.085459556912829263 -0.08398910390089076 -0.081047269861978771 -0.028253206585606556 -0.082750044265982814 -0.073457575794072194 -0.065846702932200407 -0.02783241196280542 0.04232342837651959 -0.036671532618548323 -0.066297429561053819 0.062284729683796829 -0.01229039200458606 -0.038405155554871395 0.0031913519219036839 -0.070930468431002286 0.041124235630880537 0.0040154239534875395 0.020942310889038269 0.076784042845925549 0.046282921364105008 0.038158260222026272 0.018375219896406923 -0.02479825110892513 -0.068835700791353108 0.0064859368637634352
leaf_weight=1736.9092471301556 439.80835798382759 3971.9881062060595 831.22918094694614 369.94294159114361 9204.8219196945429 14933.478331893682 3044.223444595933 1448.8075438141823 422.13720341026783 1362.5322591364384 131.85859464108944 1127.8902873396873 2924.1579149663448 364.94367411732674 1791.5841640084982 858.79343718290329 1033.6631814092398 259.56655240058899 493.90514755249023 2320.7302041500807 32535.462918639183 2210.782542064786 3007.7913565784693 1076.9235556423664 18810.543761268258 982.68977579474449 1367.2317269146442 2078.7845898419619 146.53997388482094 1796.7493576258421
leaf_count=5734 2184 14207 3571 1547 45422 74005 14891 6207 2081 6595 627 4859 10570 1572 8485 2969 4265 1136 1977 10977 117926 8762 11461 3605 67438 3601 5223 8867 674 7129
internal_value=-9.95918e-06 -0.0508346 0.0199055 -0.000264184 -0.0524461 -0.064654 -0.0389719 -0.0204937 0.0354723 -0.0207592 -0.00809567 -0.07917 0.0396727 -0.0193825 -0.0795575 0.0452201 0.00170126 0.0378093 -0.0523416 -0.0591545 0.0383163 0.0258318 0.0124412 0.0463525 0.0479352 0.0230772 0.040207 -0.0125655 -0.0132895 -0.000799086
internal_weight=113086 31837.3 81249.1 40215 18974.9 27443.2 10077.7 8642.22 4394.13 7033.47 5670.94 10332.7 41034.1 4680.29 17365.5 990.652 5490.26 39297.2 2432.03 3151.96 39037.6 5134.94 4041.45 21240.1 19887.5 1352.63 33902.7 4240.48 640.445 2161.69
internal_count=458567 146263 312304 162953 86762 129975 44834 36481 16288 29943 23348 50281 149351 19752 85141 3596 21933 143617 11136 14548 142481 19332 15726 76191 71043 5148 123149 17568 2651 8701
is_linear=0
shrinkage=0.05


Tree=5
num_leaves=31
num_cat=0
split_feature=2 3 0 0 5 17 1 17 1 9 5 12 1 1 17 1 1 11 17 3 10 2 0 11 17 13 0 16 0 7
split_gain=41755 28168 22656.8 13906.3 3923.04 3511.52 2855.09 2376.99 1367.46 2003.39 1246.99 796.775 779.477 1100.37 697.976 535.009 2210.58 489.386 455.05 454.678 412.891 312.275 297.303 290.58 278.939 275.218 314.416 263.358 218.968 214.479
threshold=-1.9900166274046496 0.70031269337459767 63.500000000000007 58.500000000000007 2.5000000000000004 29.867795545653344 1.0000000180025095e-35 29.867795545653344 -1.0000000180025095e-35 12216.919921875002 2.5000000000000004 1.5081717440163118 28991.305000000004 -433052.35999999993 29.867795545653344 28991.305000000004 -1.0000000180025095e-35 -6.5133562060136851 22.128487237533022 1.4146194552259452 12220.348154929083 -204.97576625975424 78.500000000000014 -0.11131352806250822 2.8730363727560269 1.0000000180025095e-35 40.500000000000007 1.0000000180025095e-35 49.500000000000007 -1.0000000180025095e-35
decision_type=2 2 2 2 2 2 2 2 2 2 2 2 2 2 2 2 2 2 2 2 2 2 2 2 2 2 2 2 2 2
left_child=1 5 10 4 6 15 8 27 -2 18 12 -6 13 -3 -12 16 -1 -13 24 -4 -15 -18 -21 -17 -10 26 -25 -5 -8 -19
right_child=3 2 19 7 11 -7 28 -9 9 -11 14 17 -14 20 -16 23 21 29 -20 22 -22 -23 -24 25 -26 -27 -28 -29 -30 -31
leaf_value=0.051020756675750983 -0.079049451609420424 -0.080918147135027263 0.0485602064159633 -0.050102297934471719 -0.081141951056855038 -0.024945286184382905 -0.08344383689838758 -0.079878528097085677 -0.034864643492538441 0.059582002955458013 -0.082477935842154529 -0.063658123327376512 -0.081183525758889707 -0.01725573209874371 -0.028298461154339441 -0.0082588114648359037 -0.032973011283919718 -0.09131538803811895 -0.031516366471293418 -0.080341421076006947 0.065829715095866145 0.0098956737150514198 0.048274615339137121 0.030184586433168882 0.016507982388670468 0.041235055970180262 -0.0395076576400109 0.047534645582713336 -0.043705666632230585 -0.0019790588886853286
leaf_weight=5432.7950990945101 855.63673500716686 771.08926895260811 5991.9874458163977 70.186949715018272 14690.68564067781 2294.1490810662508 2599.7834593206644 415.61380262672901 364.67547330260277 851.68268670141697 9082.660096809268 1773.0423070341349 1061.5806472301483 1739.0717400461435 636.52459073066711 304.59729903936386 462.34453821182251 76.195942372083664 3964.9124483913183 115.22672659158707 163.47854527831078 5215.2343863844872 73.475271701812744 644.62909145653248 958.43779748678207 46596.995129436255 215.93317490816116 3888.0083677023649 401.06984873116016 563.73040115833282
leaf_count=19296 4274 3791 21361 310 74005 9829 13025 2081 1572 2974 45521 8485 5243 7284 2767 1227 2000 370 17414 545 560 20382 262 2396 3709 168910 930 13897 1866 2281
internal_value=-1.54645e-05 0.0190148 -0.0330899 -0.0488715 -0.0622236 0.035741 -0.0373377 0.0338557 -0.0198346 -0.0115803 -0.069493 -0.0767675 -0.0449336 -0.0305361 -0.0789305 0.0381059 0.0282213 -0.0501303 -0.0230435 0.0461532 -0.0101108 0.00640333 -0.0302364 0.0404051 0.00234335 0.0407176 0.012689 0.0458009 -0.0781361 -0.0126367
internal_weight=112275 80801.8 19635.1 31473.7 27099.9 61166.7 9996.2 4373.81 6995.35 6139.71 13454.4 17103.7 3735.22 2673.64 9719.18 58872.5 11110.4 2412.97 5288.03 6180.69 1902.55 5677.58 188.702 47762.2 1323.11 47457.6 860.562 3958.2 3000.85 639.926
internal_count=458567 312304 87334 146263 129975 224970 44834 16288 29943 25669 65166 85141 16878 11635 48288 215141 41678 11136 22695 22168 7844 22382 807 173463 5281 172236 3326 14207 14891 2651
is_linear=0
shrinkage=0.05


Tree=6
num_leaves=31
num_cat=0
split_feature=2 3 0 0 5 17 17 5 14 14 5 14 11 9 17 7 7 17 11 3 0 0 14 10 0 11 9 3 2 16
split_gain=38138.3 25597.9 20742.5 12757.1 3687.91 3187.03 2167.37 1947.56 1684.08 1212.05 1180.87 1336.02 762.639 669.302 662.096 611.47 849.619 482.848 448.921 412.374 384.656 1151.92 341.987 337.249 271.496 259.919 259.804 255.816 422.662 254.641
threshold=-1.9900166274046496 0.70031269337459767 63.500000000000007 58.500000000000007 2.5000000000000004 29.867795545653344 29.867795545653344 1.5000000000000002 2.5000000000000004 1.0000000180025095e-35 2.5000000000000004 2.5000000000000004 -0.37282265937539422 10204.440747070314 29.867795545653344 -0.0023780296915644201 0.0015572880376067552 112.37219337118565 -6.5133562060136851 1.4146194552259452 59.500000000000007 40.500000000000007 5.5000000000000009 12220.348154929083 77.500000000000014 -0.37282265937539422 12216.919921875002 1.306439708506812 2.136920385831131 1.0000000180025095e-35
decision_type=2 2 2 2 2 2 2 2 2 2 2 2 2 2 2 2 2 2 2 2 2 2 2 2 2 2 2 2 2 2
left_child=1 5 10 4 7 9 27 -2 13 -1 11 23 18 25 -12 -15 -17 26 -6 -4 21 -11 -23 -3 -21 -9 -10 -5 -29 -18
right_child=3 2 19 6 12 -7 -8 8 17 20 14 -13 -14 15 -16 16 29 -19 -20 24 -22 22 -24 -25 -26 -27 -28 28 -30 -31
leaf_value=0.070968889225527812 -0.0792517796522903 -0.074610049217531324 0.046363550402524233 0.046906612307095918 -0.061223860465203464 -0.023746165300057874 -0.077309971685772486 -0.02406751018162509 0.0046970738464379869 0.03523043027399949 -0.07983614985250459 -0.006267251283711044 -0.078602945436935551 0.059502835154233803 -0.026964015244731993 -0.059106649093193055 -0.069630219163116458 -0.024094139198087155 -0.012333305517483998 -0.079647878023867802 0.042140277355109113 -0.025216235744492378 0.013760786112445701 -0.013656456951995223 0.042324123271486748 -0.069401277502454464 0.048499469833378321 -0.066070352340137736 0.069865313040836347 0.062969200542080148
leaf_weight=2428.5376013666391 2046.1527191996574 1966.15929505229 5962.8260249048471 3707.5194417089224 1751.9012722820044 2289.6190161556005 408.14263089001179 370.08169333636761 2085.3330570906401 38242.776844546199 8918.184651106596 1481.0612258315086 14410.986171483994 208.83728924393654 634.67716586589813 826.92601549625397 42.768802404403687 1500.6374254226685 641.88067227602005 109.5593298971653 13797.150291129947 672.55368804931641 3443.2833782583475 256.82702408730984 77.986728399991989 2190.922129958868 404.12388272583485 131.80145289003849 100.83430315554142 232.29322020709515
leaf_count=8297 10371 9708 21361 13267 8485 9829 2081 1652 8325 140665 45521 6059 73991 739 2767 4041 214 6457 2665 525 49981 2876 13322 1111 282 10771 1455 598 342 809
internal_value=-2.16916e-05 0.0181804 -0.0318226 -0.0470672 -0.0599954 0.034122 0.0323528 -0.0357991 -0.0244886 0.0363838 -0.0670311 -0.043061 -0.074261 -0.0479802 -0.0763243 -0.0189154 -0.033785 -0.00169137 -0.0481173 0.0440671 0.0348879 0.0325254 0.00739002 -0.0675711 -0.0289064 -0.0628534 0.0118114 0.0437152 -0.00712382 0.0423156
internal_weight=111342 80281.2 19407.3 31061.1 26712.8 60873.9 4348.3 9908.08 7861.92 58584.3 13256.9 3704.05 16804.8 3871.83 9552.86 1310.83 1101.99 3990.09 2393.78 6150.37 56155.8 42358.6 4115.84 2222.99 187.546 2561 2489.46 3940.16 232.636 275.062
internal_count=458567 312304 87334 146263 129975 224970 16288 44834 34463 215141 65166 16878 85141 18226 48288 5803 5064 16237 11150 22168 206844 156863 16198 10819 807 12423 9780 14207 940 1023
is_linear=0
shrinkage=0.05


Tree=7
num_leaves=31
num_cat=0
split_feature=16 3 17 7 7 10 9 14 10 11 15 15 1 15 1 15 1 1 1 1 7 7 13 1 11 17 1 10 17 10
split_gain=28173.2 22604.5 3600.4 2167.34 2500.7 2285.36 1637.65 976.441 880.173 658.189 960.097 1185.6 590.946 490.334 458.546 446.116 440.265 715.451 420.262 616.003 376.911 519.391 483.774 372.837 343.469 330.056 609.237 306.72 300.529 215.815
threshold=1.0000000180025095e-35 0.70031269337459767 29.867795545653344 1.0000000180025095e-35 -1.0000000180025095e-35 12220.348154929083 12216.919921875002 1.0000000180025095e-35 7702.3439289903063 -0.37282265937539422 50.100000000000009 49.900000000000006 548841.53500000015 60.050000000000004 1862326.4800000002 20.650000000000002 1.0000000180025095e-35 -1.0000000180025095e-35 1.0000000180025095e-35 -1.0000000180025095e-35 1.0000000180025095e-35 -9.3092918376766462e-05 1.0000000180025095e-35 -1.0000000180025095e-35 -6.5133562060136851 19.323725724367527 28991.305000000004 2626.4689074938046 1944.6209244792419 810.32421763954483
decision_type=2 2 2 2 2 2 2 2 2 2 2 2 2 2 2 2 2 2 2 2 2 2 2 2 2 2 2 2 2 2
left_child=9 2 7 4 6 16 18 13 15 24 11 -11 -7 -2 -8 -6 17 -5 19 -3 21 -9 -23 -13 -1 26 -25 -4 -26 -17
right_child=1 3 27 5 8 12 14 20 -10 10 -12 23 -14 -15 -16 29 -18 -19 -20 -21 -22 22 -24 25 28 -27 -28 -29 -30 -31
leaf_value=-0.046404499247169523 0.035227304735187495 -0.078937244433946174 -0.023316025671361464 -0.079154021875260883 0.0063628863582356329 0.052946079461514139 0.052066149831143577 0.021604695273034751 -0.040968821495131681 -0.077192370432566965 -0.076405860443391038 -0.077070238933740071 -0.070979498420122064 0.077316372823134152 -0.07607915567763425 -0.0039229978325593272 -0.07758759352380451 -0.019856702249039179 -0.07816612265296824 -0.011358804932793677 0.01895067203664523 -0.0072533532212054816 0.033409684863949504 0.0095372253225090488 -0.017287377130232547 -0.039777365597849779 -0.077151490466715045 -0.070289239901929187 0.10308011693247332 -0.020188823983312204
leaf_weight=2667.6882882267237 1303.6863027513027 641.80079287290573 2273.3336291462183 969.7658254802227 4461.0277767181396 555.69290590286255 415.13362064957619 15798.881754025817 2150.5177258104086 2721.5577844232321 6521.4813735336065 508.72836096584797 116.21265463531017 1476.8665685206652 83.799995392560959 3565.6175864487886 3310.8254506886005 1070.5665631741285 2449.9151904433966 710.93742713332176 11103.392693430185 747.25444611907005 34073.12586325407 933.42468331754208 722.74761584401131 3472.6526488512754 258.76185518503189 410.38208821415901 55.758383065462112 4766.4843573272228
leaf_count=12601 4964 3331 9853 5015 18270 1998 1495 60770 10206 14357 34258 2686 595 5022 437 15067 17221 4527 12777 2944 42961 3090 126707 3666 3062 15991 1365 2052 179 21100
internal_value=-2.82924e-05 0.0110781 0.0262398 -0.0292357 -0.0210431 -0.0554118 -0.0546362 0.0286008 -0.0113725 -0.0575133 -0.0622066 -0.0504763 0.0314971 0.0575863 0.0305221 -0.00639669 -0.0663256 -0.0480455 -0.0658114 -0.0434283 0.0272948 0.029125 0.0325369 -0.0364202 -0.0378771 -0.0319844 -0.0092791 -0.0305032 -0.00864783 -0.0132288
internal_weight=110318 92455.2 67186.9 25268.3 19245.2 6023.06 4301.59 64503.2 14943.6 17862.8 14416.6 7895.13 671.906 2780.55 498.934 12793.1 5351.16 2040.33 3802.65 1352.74 61722.7 50619.3 34820.4 5173.57 3446.19 4664.84 1192.19 2683.72 778.506 8332.1
internal_count=458567 370402 255419 114983 85627 29356 20984 243514 64643 88165 72323 38065 2593 9986 1932 54437 26763 9542 19052 6275 233528 190567 129797 23708 15842 21022 5031 11905 3241 36167
is_linear=0
shrinkage=0.05


Tree=8
num_leaves=31
num_cat=0
split_feature=2 0 0 0 5 5 1 17 15 13 1 10 15 15 12 7 0 11 17 16 16 17 10 1 1 11 0 16 17 11
split_gain=32650.2 11253.5 8882.92 28284.5 4973.31 3295.03 2591.84 1875.15 1485.91 1113.28 1040.87 1076.72 996.825 786.281 726.843 612.318 598.568 402.36 367.451 353.938 245.197 230.233 374.752 228.175 1011.9 243.594 225.457 216.966 206.487 203.593
threshold=-1.9900166274046496 58.500000000000007 40.500000000000007 58.500000000000007 2.5000000000000004 2.5000000000000004 1.0000000180025095e-35 29.867795545653344 50.100000000000009 1.0000000180025095e-35 -1.0000000180025095e-35 12220.348154929083 50.100000000000009 49.900000000000006 1.5081717440163118 0.0032625998355788615 49.500000000000007 -8.0702903941041022 29.867795545653344 95.952297028747068 57.042304874849748 3.8457207986322124 11226.410984347811 -1.0000000180025095e-35 28991.305000000004 -0.11131352806250822 49.500000000000007 1.0000000180025095e-35 5.3945960061629092 -9.2981597418319453
decision_type=2 2 2 2 2 2 2 2 2 2 2 2 2 2 2 2 2 2 2 2 2 2 2 2 2 2 2 2 2 2
left_child=2 5 18 4 12 6 8 27 10 -6 -2 -12 13 20 -7 -5 -14 29 23 21 -4 22 -15 -1 -25 -26 -8 -3 -18 -16
right_child=1 7 3 15 9 14 26 -9 -10 -11 11 -13 16 19 17 -17 28 -19 -20 -21 -22 -23 -24 24 25 -27 -28 -29 -30 -31
leaf_value=0.045479039403717079 -0.071972247432405823 -0.04626604270251785 -0.07356203670903895 0.040510982383376345 -0.027226570984183959 -0.074803764248972934 -0.078811664815966478 -0.073385056207888821 -0.065231758693403294 -0.076791040576689049 -0.0088914646433574766 0.053629663047600619 -0.078102143599620172 -0.021871329728295738 -0.038948064410580324 -0.047400265745282083 -0.064081918386246453 -0.019702835403514023 -0.023798734572877279 -0.03548198944686775 -0.024932479763613725 0.013891420487326287 0.056243253439917498 -0.00029794226908004697 -0.016623741740547395 0.034974051667778672 -0.037845275569176696 0.042748484419666367 -0.01819760595764627 -0.077843873557373489
leaf_weight=3736.2969642877579 535.72643680870533 69.56685733795166 454.66022084653378 20610.108137026429 1310.1080764085054 13857.651527091861 2509.1724586486816 393.10469974577427 1292.1703122109175 8399.5213014930487 4212.103891953826 823.11237123608589 858.82122784852982 1122.8066449612379 572.48434145748615 199.86475476622581 300.09024418890476 955.09530413150787 279.53441536426544 568.24024371802807 604.24328342080116 3085.5589366555214 177.73683692514896 2208.5471892058849 230.1132440418005 33802.121075719595 388.66032022237778 3839.0154464542866 1342.9319892376661 819.52388843894005
leaf_count=13590 2811 310 2313 75258 5823 74005 13025 2081 6595 44458 17568 2969 4463 4756 2759 933 1509 4175 1212 2495 2622 11928 626 8815 943 124791 1866 13897 5769 4202
internal_value=-3.28131e-05 -0.0442117 0.0168313 -0.000163877 -0.0456443 -0.056621 -0.0336699 0.0306914 -0.0169266 -0.0701042 -0.00572042 0.0013288 -0.0177518 -0.00671587 -0.070445 0.0396662 -0.0442737 -0.0447059 0.0333107 0.00164216 -0.0458222 0.00645361 -0.0111886 0.0337102 0.0324966 0.034625 -0.0733204 0.0411617 -0.0265846 -0.0618549
internal_weight=109559 30267.4 79291.3 39034.7 18224.7 25965.7 9760.95 4301.69 6863.11 9709.63 5570.94 5035.22 8515.09 6013.25 16204.8 20810 2501.84 2347.1 40256.6 4954.34 1058.9 4386.1 1300.54 39977.1 36240.8 34032.2 2897.83 3908.58 1643.02 1392.01
internal_count=458567 146263 312304 162953 86762 129975 44834 16288 29943 50281 23348 20537 36481 24740 85141 76191 11741 11136 149351 19805 4935 17310 5382 148139 134549 125734 14891 14207 7278 6961
is_linear=0
shrinkage=0.05


Tree=9
num_leaves=31
num_cat=0
split_feature=2 3 0 0 17 17 1 17 14 1 1 1 1 17 1 1 14 10 15 11 11 10 3 17 14 17 0 0 3 10
split_gain=29925.4 19477.4 17187.9 10371.7 2396.6 1715.86 1581.24 1389.93 1071.23 1044.42 1536.5 894.075 890.294 1839.36 748.517 729.695 549.877 545.237 536.843 905.774 405.443 376.936 350.077 309.654 249.979 245.886 235.33 232.647 231.102 226.273
threshold=-1.9900166274046496 0.70031269337459767 63.500000000000007 58.500000000000007 29.867795545653344 29.867795545653344 1.0000000180025095e-35 1.8336141675578432 1.0000000180025095e-35 1862326.4800000002 -433052.35999999993 -1.0000000180025095e-35 -1.0000000180025095e-35 23.045893967608514 548841.53500000015 -1.0000000180025095e-35 3.5000000000000004 12220.348154929083 51.250000000000007 -0.37282265937539422 -6.5133562060136851 12220.348154929083 1.4146194552259452 16.761328534403201 1.0000000180025095e-35 1944.6209244792419 77.500000000000014 49.500000000000007 0.99275227165523772 1022.7594397548324
decision_type=2 2 2 2 2 2 2 2 2 2 2 2 2 2 2 2 2 2 2 2 2 2 2 2 2 2 2 2 2 2
left_child=1 4 9 6 8 -5 7 11 -1 10 -3 -2 -9 -14 15 -10 -17 -13 -15 20 -20 -12 24 -16 -4 29 -24 -8 -29 -22
right_child=3 2 22 5 -6 -7 27 12 14 -11 21 17 13 18 23 16 -18 -19 19 -21 25 -23 26 -25 -26 -27 -28 28 -30 -31
leaf_value=0.065178475242959555 -0.066422075648004467 -0.070666113687237117 0.079707624626339457 0.039357153587381018 -0.020333940471703466 -0.071440846157229315 -0.075461122956567192 -0.073510299454062372 0.034079601986942883 -0.073540012584224129 -0.021232263043400697 -0.035561711743387077 0.014608845585619829 -0.037262482258811111 0.034518888557388452 -0.035517451428895341 0.012095762764571874 0.051799776656484012 -0.047581296093833103 -0.072131718266005215 0.022849644887912038 0.057191314968698261 -0.074990963423561471 0.019620661347533822 0.039920988592750284 0.099670180400577027 0.039364662908085352 -0.0093890356864369858 -0.06404452080497916 -0.037271373832431669
leaf_weight=2336.4235406816006 329.34246098995209 2668.8086081147194 425.83271884918213 3884.0419642031193 2272.4536947757006 383.84993542730808 7497.4295406341553 3221.9765472859144 4043.4942587316036 7484.6895177662373 2329.3493474423885 240.19318509101868 1207.9399683624506 4647.5764524042606 41907.79488016665 692.60314060747623 4864.6725130230188 695.15490634739399 1450.5222201049328 4508.0670421719551 287.65878736972809 163.88206827640533 107.32473090291023 3806.6574127674103 5472.9133039712906 55.696163326501846 77.260590046644211 261.76811420917511 743.39315861463547 342.88724952936172
leaf_count=8297 1758 14122 1417 14207 9829 2081 40420 17785 15066 40350 10113 1043 4702 21709 155373 3028 18845 2543 7205 24835 1129 581 525 14532 19944 179 282 1234 3914 1519
internal_value=-3.99508e-05 0.0161181 -0.0283864 -0.0427484 0.0300286 0.0293895 -0.0548272 -0.0460153 0.0320139 -0.0616059 -0.0442999 0.00440908 -0.0500717 -0.0440294 0.0306128 0.0179196 0.0061603 0.029359 -0.0503024 -0.0594215 -0.0326014 -0.0160733 0.0406732 0.0332785 0.0427954 -0.000928409 -0.0271035 -0.0724309 -0.0498182 -0.00983661
internal_weight=108412 78654.2 18730.1 29757.5 59924.1 4267.89 25489.6 16987 57651.6 12646.7 5162.04 1264.69 15722.3 12500.3 55315.2 9600.77 5557.28 935.348 11292.4 6644.83 2136.76 2493.23 6083.33 45714.5 5898.75 686.242 184.585 8502.59 1005.16 630.546
internal_count=458567 312304 87334 146263 224970 16288 129975 84407 215141 65166 24816 5344 79063 61278 206844 36939 21873 3586 56576 34867 10032 10694 22168 169905 21361 2827 807 45568 5148 2648
is_linear=0
shrinkage=0.05


Tree=10
num_leaves=31
num_cat=0
split_feature=2 3 0 0 5 1 12 15 16 5 1 10 6 15 12 15 16 6 3 1 1 11 15 16 10 11 0 0 11 11
split_gain=27448.1 17742.9 15828 9568.26 3064.4 2306.62 1483.19 1305.91 1125.17 1015.66 908.824 884 830.869 747.111 684.557 548.068 477.628 434.398 429.628 367.288 1056.62 363.572 311.427 292.626 290.713 267.407 240.857 210.871 200.982 197.311
threshold=-1.9900166274046496 0.70031269337459767 62.500000000000007 58.500000000000007 2.5000000000000004 1.0000000180025095e-35 0.11952347606087278 50.100000000000009 103.37283939165965 2.5000000000000004 -1.0000000180025095e-35 12220.348154929083 0.16530000000000003 50.100000000000009 1.5081717440163118 49.250000000000007 154.26437700447315 -1.0000000180025095e-35 1.4146194552259452 548841.53500000015 -1.0000000180025095e-35 -8.0702903941041022 86.550000000000011 1.0000000180025095e-35 12220.348154929083 -0.11131352806250822 78.500000000000014 49.500000000000007 -0.14364815176724613 -9.2981597418319453
decision_type=2 2 2 2 2 2 2 2 2 2 2 2 2 2 2 2 2 2 2 2 2 2 2 2 2 2 2 2 2 2
left_child=1 8 9 4 5 7 23 10 19 13 -2 -12 17 15 -6 -3 -11 -10 -4 20 -1 29 -14 -5 -17 -21 -20 -7 -9 -16
right_child=3 2 18 6 14 27 -8 28 12 16 11 -13 22 -15 21 24 -18 -19 26 25 -22 -23 -24 -25 -26 -27 -28 -29 -30 -31
leaf_value=0.039389580854467171 -0.068105348363619686 -0.069436356251625933 0.041048164089738298 -0.050335553868144603 -0.071259134413359695 -0.074695165273067701 -0.066438626083226218 -0.025218908313646444 0.021548021948734539 -0.07236651543750143 -0.0072933896627318667 0.050015011156752422 0.01387383914715783 -0.066832003247239466 -0.035565296725908913 -0.013310652988599361 -0.028186156055200053 -0.01874006242981676 -0.071991667856978234 -0.013904678325597303 0.0069506517341086666 -0.017922262167294901 0.049499476728766881 0.039572889117020345 0.058058298472334839 0.033305924664088098 0.041336299068490526 -0.034561268535306069 -0.072563848398614156 -0.074391153931572349
leaf_weight=4787.6132554411888 510.97087070345879 438.46428462862968 5880.4885804653168 92.600276827812195 13178.833124041557 2394.1027469038963 377.35221135616302 294.24126207828522 912.34774769842625 8146.9065644592047 4195.6676136851311 801.33299054205418 1352.9380013793707 1334.9027942121029 559.19564944505692 1606.2842180728912 662.00910639762878 2507.7333073616028 134.05081410706043 301.83197297155857 5278.3935426622629 947.42146117985249 1123.1652143746614 3763.150287091732 156.4820826202631 43285.69549049437 71.931990712881088 379.99304302036762 947.76445700228214 792.09857125580311
leaf_count=17833 2811 2337 21445 439 74005 13025 2057 1403 3513 45188 17568 2969 5302 7077 2759 6755 3051 10788 664 1234 20699 4175 4110 13792 555 161491 262 1866 5192 4202
internal_value=-4.6526e-05 0.0154434 -0.0274257 -0.0413647 -0.0531349 -0.0308184 0.0281511 -0.0150425 0.0287121 -0.0599598 -0.00459768 0.00189656 0.00797831 -0.0373192 -0.0668668 -0.0194171 -0.0690472 -0.00799095 0.0385615 0.0309905 0.0223801 -0.0416805 0.0300371 0.0374111 -0.00696941 0.0329789 -0.0323909 -0.0692009 -0.0613544 -0.0583317
internal_weight=107216 77981.2 18431.5 29234.7 25001.6 9524.07 4233.1 6749.98 59549.7 12345 5507.97 4997 5896.18 3536.13 15477.5 2201.23 8808.92 3420.08 6086.47 53653.5 10066 2298.72 2476.1 3855.75 1762.77 43587.5 205.983 2774.1 1242.01 1351.29
internal_count=458567 312304 87334 146263 129975 44834 16288 29943 224970 64963 23348 20537 23713 16724 85141 9647 48239 14301 22371 201257 38532 11136 9412 14231 7310 162725 926 14891 6595 6961
is_linear=0
shrinkage=0.05


Tree=11
num_leaves=31
num_cat=0
split_feature=2 3 0 0 5 1 17 17 15 1 1 1 9 11 3 1 1 11 10 2 17 0 0 3 2 11 11 7 7 9
split_gain=25204.2 16168.9 14592 8842.42 2927.43 2165.02 2003.59 1448.34 1213.31 986.396 1373.6 843.352 809.408 673.608 390.727 364.396 1516.34 340.486 307.517 260.773 232.052 222.211 204.134 203.769 373.826 193.401 188.76 247.184 483.884 446.471
threshold=-1.9900166274046496 0.70031269337459767 62.500000000000007 58.500000000000007 2.5000000000000004 1.0000000180025095e-35 29.867795545653344 37.251478867694509 50.100000000000009 1862326.4800000002 -433052.35999999993 -1.0000000180025095e-35 12216.919921875002 -0.37282265937539422 1.4146194552259452 28991.305000000004 -1.0000000180025095e-35 -8.0702903941041022 12220.348154929083 -204.97576625975424 16.761328534403201 76.500000000000014 49.500000000000007 1.306439708506812 2.136920385831131 -0.14364815176724613 -9.2981597418319453 -1.0000000180025095e-35 0.00010184709930988191 2160.9496276855475
decision_type=2 2 2 2 2 2 2 2 2 2 2 2 2 2 2 2 2 2 2 2 2 2 2 2 2 2 2 2 2 2
left_child=1 6 9 4 5 8 15 23 11 10 -3 -2 -13 17 -4 16 -1 26 -12 -18 -17 -16 -7 -5 -25 -10 27 -6 29 -29
right_child=3 2 14 7 13 22 -8 -9 25 -11 18 12 -14 -15 21 20 19 -19 -20 -21 -22 -23 -24 24 -26 -27 -28 28 -30 -31
leaf_value=0.040636950328659521 -0.06642014739870955 -0.067128874664043742 0.039295374869046662 0.038919302549632551 -0.07622997489669818 -0.072918738549584985 -0.01869333413655486 -0.068642732049215074 -0.024129060936958567 -0.070254779365413952 -0.019294591060632499 -0.0069336134824512482 0.048255401837755341 -0.069673166669698125 -0.072491371500796403 0.032310186430827496 -0.032981505098485596 -0.017234467614775439 0.052645544743243046 0.0063291321686813678 0.019626118978400834 0.034856561976715154 -0.033182800028354366 -0.06465516177652475 0.06403744648331855 -0.070843055534678526 -0.072450853050682343 -0.075059582380897105 -0.076141388261705592 0.092785543074048238
leaf_weight=5153.3399229943752 498.06876826286316 2527.1287174522877 5836.7778144329786 3604.1060877293348 214.00567239522934 2331.3967341333628 2262.0214654803276 361.71191510558128 292.21203972399235 7086.9464475363493 2304.6196506768465 4192.7873623371124 789.33690962195396 12811.275583192706 125.14996866881847 42163.566031202674 459.05359520018101 947.61564148962498 158.65468153357506 5192.8240893632174 3946.0190359652042 78.223848730325699 376.09460487961769 131.76682680845261 98.523181185126305 922.87994292378426 773.12939558923244 55.554550915956497 146.32122695446014 137.31340971589088
leaf_count=19296 2811 14032 21445 13279 1140 13025 9829 2064 1403 40275 10079 17568 2969 73991 635 158326 2000 4189 577 20382 15137 291 1866 603 342 5192 4202 295 780 544
internal_value=-5.37839e-05 0.0148002 -0.0265293 -0.0400805 -0.0515722 -0.0296738 0.0274537 0.026982 -0.0144152 -0.0582627 -0.0412305 -0.00439132 0.00180998 -0.0652211 0.0369211 0.0292879 0.0210214 -0.0401343 -0.0146571 0.00313485 0.0312248 -0.0311806 -0.0674023 0.0360055 -0.00957201 -0.059616 -0.0564891 -0.0341634 -0.00759277 0.0443989
internal_weight=105978 77294.3 18117.5 28684.1 24488 9402.78 59176.8 4196.11 6695.29 12077.3 4990.4 5480.19 4982.12 15085.2 6040.15 56914.8 10805.2 2273.94 2463.27 5651.88 46109.6 203.374 2707.49 3834.4 230.29 1215.09 1326.32 553.195 339.189 192.868
internal_count=458567 312304 87334 146263 129975 44834 224970 16288 29943 64963 24688 23348 20537 85141 22371 215141 41678 11150 10656 22382 173463 926 14891 14224 945 6595 6961 2759 1619 839
is_linear=0
shrinkage=0.05


Tree=12
num_leaves=31
num_cat=0
split_feature=2 3 0 0 5 17 5 17 15 15 14 13 5 14 9 11 15 3 15 11 5 14 14 5 9 0 8 3 2 11
split_gain=23164.4 14741.3 13464.6 8180.48 2803.77 1822.38 1557.16 1330 1229.67 1394.97 1025.12 967.404 757.665 1143.98 699.574 665.133 416.554 355.535 329.828 327.586 271.834 238.854 229.832 294.273 226.059 205.855 203.185 185.568 339.694 168.655
threshold=-1.9900166274046496 0.70031269337459767 62.500000000000007 58.500000000000007 2.5000000000000004 29.867795545653344 1.5000000000000002 37.251478867694509 50.100000000000009 49.900000000000006 1.0000000180025095e-35 1.0000000180025095e-35 2.5000000000000004 3.5000000000000004 12216.919921875002 -0.37282265937539422 49.900000000000006 1.4146194552259452 50.100000000000009 -6.5133562060136851 1.5000000000000002 1.0000000180025095e-35 6.5000000000000009 2.5000000000000004 12216.919921875002 79.500000000000014 46.33039195982996 1.306439708506812 2.136920385831131 -0.11131352806250822
decision_type=2 2 2 2 2 2 2 2 2 2 2 2 2 2 2 2 2 2 2 2 2 2 2 2 2 2 2 2 2 2
left_child=1 5 11 4 6 10 -2 27 9 -8 -1 -3 13 -13 -11 19 -12 21 20 -6 -18 -4 23 24 -22 -19 -21 -5 -29 -20
right_child=3 2 17 7 15 -7 8 -9 -10 14 16 12 -14 -15 -16 -17 18 25 29 26 22 -23 -24 -25 -26 -27 -28 28 -30 -31
leaf_value=0.06112330325973872 -0.069880572204746388 -0.016178041728550845 0.074220359040057457 0.037282148623713769 -0.050664082366638954 -0.017807251792957956 -0.061323763721744133 -0.067139682882846594 -0.058381049838720535 -0.0052333471034520067 0.031654457746171552 -0.066592205888882899 -0.070020434070784052 -0.0028819179624415196 0.046446973225552121 -0.068222876386625622 0.026642910864013498 -0.065855107788911613 -0.014301969494679868 0.006965675341891556 -0.029918108103395874 0.034812213835895896 0.014757571601228535 0.023991555787908316 0.056046009995126003 0.04153596061651927 -0.060545206381710806 -0.06150866371864408 0.061668373669673981 0.027200989787534303
leaf_weight=2245.6064701229334 1832.2229499816895 1312.0557511001825 414.40582726895809 3575.0065237730742 1608.3042962253094 2256.0110521018505 1018.6730483919382 351.57854610681534 1529.8908094465733 4118.8456145226955 23536.307888165116 1685.459967777133 7597.0965183228254 1210.9792411327362 778.48697197437286 12438.887987360358 3824.3435470312834 133.74923658370972 247.67733561992645 493.00717484951019 923.68468759953976 5376.4353083223104 5665.6678031533957 504.06826251745224 83.25064454972744 66.800045683979988 143.86912071704865 131.59061828255653 97.2293511480093 19501.818583592772
leaf_count=8297 10371 6029 1425 13279 8485 9829 5773 2064 8494 17220 88885 9283 44660 4991 2976 73991 14553 681 1015 1991 3989 20020 21873 1931 292 245 674 603 342 74306
internal_value=-6.11033e-05 0.0141889 -0.02568 -0.0388748 -0.0501057 0.0262585 -0.0285878 0.0258869 -0.0184254 -0.00809111 0.0280172 -0.0566623 -0.0617235 -0.0399582 0.00298159 -0.0637012 0.0266475 0.0353673 0.022815 -0.0386456 0.0158754 0.0376344 0.0101365 -0.00718722 -0.022801 -0.0300569 -0.00828416 0.034488 -0.00914281 0.0266802
internal_weight=104703 76585.4 17797 28117.6 23962.2 58788.4 9278.12 4155.41 7445.9 5916.01 56532.4 11805.6 10493.5 2896.44 4897.33 14684.1 54286.8 5991.39 30750.5 2245.18 11001 5790.84 7176.67 1511 1006.94 200.549 636.876 3803.83 228.82 19749.5
internal_count=458567 312304 87334 146263 129975 224970 44834 16288 34463 25969 215141 64963 58934 14274 20196 85141 206844 22371 117959 11150 42638 21445 28085 6212 4281 926 2665 14224 945 75321
is_linear=0
shrinkage=0.05


Tree=13
num_leaves=31
num_cat=0
split_feature=2 5 5 7 13 16 14 15 15 9 7 7 12 17 17 5 7 7 13 16 13 7 7 12 12 17 7 17 5 7
split_gain=21302.3 3460.49 2572.07 1442.99 1413.68 1385.31 1376.97 901.848 804.263 818.108 752.491 1160.75 626.542 595.429 391.665 344.24 340.679 346.978 349.702 337.552 335.081 317.671 417.378 506.781 386.191 300.383 272.597 258.723 230.958 211.378
threshold=-1.9900166274046496 1.5000000000000002 2.5000000000000004 0.0055318203618591752 1.0000000180025095e-35 4.3610733757455877 1.0000000180025095e-35 50.100000000000009 49.900000000000006 12216.919921875002 -1.0000000180025095e-35 1.0000000180025095e-35 1.5081717440163118 1.6785150869627887 24.356593897075374 1.5000000000000002 -1.0000000180025095e-35 1.0000000180025095e-35 1.0000000180025095e-35 1.0000000180025095e-35 1.0000000180025095e-35 -1.0000000180025095e-35 1.0000000180025095e-35 5.7210971400804613 4.6829171872251409 2.9198469734093386 -9.3092918376766462e-05 4.2616627048572253 3.5000000000000004 -1.0000000180025095e-35
decision_type=2 2 2 2 2 2 2 2 2 2 2 2 2 2 2 2 2 2 2 2 2 2 2 2 2 2 2 2 2 2
left_child=1 4 7 6 -1 12 27 8 16 15 -7 20 -4 29 26 -10 -2 18 -18 -20 -12 -14 23 24 -23 -5 28 -3 -15 -8
right_child=2 3 5 25 -6 10 13 -9 9 -11 11 -13 21 14 -16 -17 17 -19 19 -21 -22 22 -24 -25 -26 -27 -28 -29 -30 -31
leaf_value=-0.016031889886575317 -0.069880014655516659 0.015167584845181173 -0.067074804122128545 -0.031856991935688424 0.02858024992601604 -0.068896602706026142 -0.030662263239452106 -0.043853995903381786 -0.0720970871214998 0.043441772775614229 -0.047968647542905002 -0.068144301783443897 -0.074332218711584686 0.01008044750110685 -0.014982222841792564 -0.0051525288464954917 -0.048263476275281908 -0.065872000039995646 -0.068256895296535322 0.0051392403921803739 -0.0025750544253452814 0.011426658750491682 -0.074931723477370912 0.10160803870927448 -0.04442071820507186 -0.009296175893728385 0.012857388853814669 0.050063228370700187 -0.0065068056009485167 -0.0052925125086363363
leaf_weight=1885.3652320355177 484.69741731882095 705.50426538288593 8499.5798262357712 2354.9005961120129 30491.107919543982 1038.778487175703 1030.363794952631 2773.6016360670328 201.21639379858971 928.34649877250195 466.61752668023109 1049.459793612361 457.84283100068569 4335.3650426715612 1727.7783423662186 4172.5991891026497 603.10471849143505 416.97049704194069 176.97474651038647 1357.6623595505953 3155.4404032975435 504.16045723855495 367.89604258537292 87.152603805065155 801.22113564610481 3952.9055297523737 19115.498986139894 2156.4058524668217 4067.0096085220575 4044.2649131417274
leaf_count=8093 2854 3120 52740 11963 116387 6232 5248 14972 1135 3613 2670 6318 2524 17137 7621 17455 3384 2433 1090 5923 14276 2015 2029 336 4264 17863 79220 8388 18848 18416
internal_value=-6.78728e-05 0.0136058 -0.0377313 0.00439193 0.0259822 -0.0502994 0.0081433 -0.0191548 -0.0109412 0.000812688 -0.0304051 -0.0218436 -0.060898 0.00536453 0.00810797 -0.00823502 -0.0314466 -0.0241504 -0.0160075 -0.00332546 -0.0084255 -0.0372265 -0.0275697 -0.0150489 -0.0228485 -0.01772 0.00955798 0.0414635 0.00205113 -0.0104451
internal_weight=103410 75866.5 27543.3 43490 32376.5 16428.1 37182.2 11115.2 8341.57 5302.16 5710.3 4671.52 10717.9 34320.3 29245.7 4373.82 3039.41 2554.71 2137.74 1534.64 3622.06 2218.27 1760.43 1392.53 1305.38 6307.81 27517.9 2861.91 8402.37 5074.63
internal_count=458567 312304 146263 187824 124480 93404 157998 52859 37887 22203 29496 23264 63908 146490 122826 18590 15684 12830 10397 7013 16946 11168 8644 6615 6279 29826 115205 11508 35985 23664
is_linear=0
shrinkage=0.05


Tree=14
num_leaves=31
num_cat=0
split_feature=16 3 0 5 5 17 15 0 15 14 10 17 14 17 0 16 12 3 14 0 16 14 14 15 12 17 5 14 11 17
split_gain=15679.2 12516 14908.8 2143.29 2049.06 1932.15 1038.6 1009.26 991.28 933.562 711.169 619.033 546.915 537.091 423.479 324.624 312.378 292.592 269.998 268.408 331.693 264.818 264.051 225.371 210.551 204.678 273.035 186.38 177.081 181.879
threshold=1.0000000180025095e-35 0.70031269337459767 62.500000000000007 2.5000000000000004 2.5000000000000004 29.867795545653344 50.100000000000009 59.500000000000007 49.900000000000006 2.5000000000000004 12220.348154929083 417.05936890654039 1.0000000180025095e-35 48.985747996835038 40.500000000000007 8.4915534416294083 0.090389821752536056 1.4146194552259452 1.0000000180025095e-35 40.500000000000007 16.711662383701352 1.0000000180025095e-35 5.5000000000000009 99.800000000000011 0.11952347606087278 112.37219337118565 1.5000000000000002 3.5000000000000004 -0.093607906730841697 1.4127731045625918
decision_type=2 2 2 2 2 2 2 2 2 2 2 2 2 2 2 2 2 2 2 2 2 2 2 2 2 2 2 2 2 2
left_child=3 5 4 9 6 7 8 12 -3 24 22 -5 14 -6 15 -2 -7 21 -9 20 -14 -4 -10 -13 -1 26 -11 -21 -22 -30
right_child=1 2 17 11 13 16 -8 18 10 25 -12 23 19 -15 -16 -17 -18 -19 -20 27 28 -23 -24 -25 -26 -27 -28 -29 29 -31
leaf_value=-0.05607377111672214 -0.0099603772287473261 -0.055248289347280315 0.072435428085407746 -0.066061250146828829 -0.066701373366079633 -0.014786130372108817 -0.059138848149386219 0.063560141291937919 -0.051764492518346389 -0.069125380931549421 0.045237173574354715 -0.07051471110564099 -0.016437892051419111 -0.016341611709769905 -0.023759852849325899 0.060362558208282603 -0.060467842990765769 -0.015504140484913668 0.030907706726554907 -0.018383037571951175 -0.010882165999988961 0.034068971669790497 -0.0022927600921327333 -0.029221330987906292 -0.013790834939437099 -0.018176734993321526 0.011376371790086165 0.0093256672828330011 -0.00011451926119041946 0.019393330347497885
leaf_weight=1571.9033119231462 184.54655204713345 887.18592949211597 482.59835271537304 8016.1193044483662 9932.9638075232506 2128.6947061121464 1541.9967046827078 661.37133809924126 333.24462033808231 111.97175233066082 797.79862460494041 401.44137553870678 696.15505324304104 559.61539371311665 204.25349974632263 1471.1187296956778 454.14347594976425 279.12293927371502 14979.212703675032 725.54395313560963 510.0490490347147 6665.6750737130642 1414.515046492219 1875.0129396617413 362.77397209405899 1526.985195800662 1747.9920322597027 3705.9448206871748 1233.9969316422939 37156.091688841581
leaf_count=8900 914 5034 1695 51047 60260 9315 8729 2483 1585 683 3099 2316 3347 2534 873 5716 2590 1242 57217 3124 2171 24986 5819 9800 1738 6721 6960 14492 5408 147769
internal_value=-7.0479e-05 0.00820894 -0.0235251 -0.0462054 -0.0514849 0.0195416 -0.0250527 0.02132 -0.00973832 -0.0204407 0.00612254 -0.0595258 0.0175811 -0.0640161 0.0441404 0.052521 -0.0228224 0.0346996 0.0322892 0.0164589 0.017765 0.0366609 -0.0117308 -0.0365082 -0.0481489 -0.00461094 0.00652394 0.00478763 0.0183773 0.0187661
internal_weight=102620 87005.8 22894.7 15614.2 15467.3 64111.1 4974.74 61528.3 3432.74 5321.63 2545.56 10292.6 45887.7 10492.6 1859.92 1655.67 2582.84 7427.4 15640.6 44027.8 39596.3 7148.27 1747.76 2276.45 1934.68 3386.95 1859.96 4431.49 38900.1 38390.1
internal_count=458567 370402 114983 88165 87060 255419 24266 243514 15537 25002 10503 63163 183814 62794 7503 6630 11905 27923 59700 176311 158695 26681 7404 12116 10638 14364 7643 17616 155348 153177
is_linear=0
shrinkage=0.05


Tree=15
num_leaves=31
num_cat=0
split_feature=2 0 0 0 5 5 1 12 13 15 12 1 15 9 15 0 7 7 7 12 11 16 0 16 16 11 1 1 11 9
split_gain=18342.2 6973.38 4856.88 16497.1 3519.99 2426.21 1864.86 1041.14 997.819 940.654 676.99 661.701 607.33 579.951 494.205 469.952 361.601 304.853 390.578 451.654 380.237 272.137 227.826 212.523 198.874 194.386 171.126 519.485 204.395 163.515
threshold=-1.9900166274046496 58.500000000000007 40.500000000000007 58.500000000000007 2.5000000000000004 2.5000000000000004 1.0000000180025095e-35 0.11952347606087278 1.0000000180025095e-35 50.100000000000009 1.5081717440163118 -1.0000000180025095e-35 50.100000000000009 12216.919921875002 49.250000000000007 49.500000000000007 0.00040390279163284032 -1.0000000180025095e-35 1.0000000180025095e-35 5.7210971400804613 -6.5133562060136851 95.952297028747068 49.500000000000007 1.0000000180025095e-35 67.268029724845505 -0.14364815176724613 -3496706.5399999996 28991.305000000004 -0.11131352806250822 2160.9496276855475
decision_type=2 2 2 2 2 2 2 2 2 2 2 2 2 2 2 2 2 2 2 2 2 2 2 2 2 2 2 2 2 2
left_child=2 5 26 4 12 6 9 23 -6 11 -7 -2 14 -13 24 -14 -5 -12 19 20 -19 -16 -8 -3 -4 -11 -1 -28 -29 -21
right_child=1 7 3 16 8 10 22 -9 -10 25 17 13 15 -15 21 -17 -18 18 -20 29 -22 -23 -24 -25 -26 -27 27 28 -30 -31
leaf_value=0.036114535045360434 -0.06156852588808083 -0.044764004876523253 -0.064614366206537252 0.031017569764317167 -0.019169143617810372 -0.064846509468391475 -0.069136050870220914 -0.060143981174979017 -0.067455730965080715 -0.017951854241518239 -0.071536378221192159 -0.005559727727692039 -0.068605124380130084 0.042386373956949684 0.0051412091855072214 -0.020321714904403723 -0.036179782019708562 -0.042269943223229911 -0.072058926812374566 -0.073629106168395145 0.013544747641650635 -0.031763058165793834 -0.025734452984461743 0.033900191511750645 -0.01900591207165539 -0.066146541650660987 0.002482843306057548 -0.019477312443746148 0.02601084147542105 0.12317537331719444
leaf_weight=3154.8289893120527 451.34994122385979 87.791987657546997 407.7637627273798 19559.679088160396 1260.412131562829 11388.558512553573 2160.5861810445786 333.43609558045864 7092.7372755557299 279.52647836506367 437.02816867828369 4175.2742008715868 741.45488923788071 742.81363566219807 4354.1990531682968 1574.8553523123264 202.12315247952938 774.6653701364994 347.6717242449522 12.133041530847548 503.16081236302853 564.17441369593143 352.20136767625809 3649.1843864768744 578.72965310513973 836.54539793729782 2609.1826247572899 248.64727702736855 32548.917619243264 76.757087647914886
leaf_count=12276 2811 439 2344 75187 5823 74005 13025 2057 44458 1403 2524 17568 4463 2969 17322 7278 1004 4259 2008 66 2009 2513 1866 13792 2561 5192 10465 1031 125579 270
internal_value=-7.5766e-05 -0.0357349 0.0125927 -0.000523776 -0.0373112 -0.0466127 -0.0264879 0.0244949 -0.0601707 -0.0123181 -0.0599865 -0.00363525 -0.0140838 0.00168161 -0.00557103 -0.0357818 0.0303298 -0.0342559 -0.0247459 -0.0127022 -0.0202889 0.000906436 -0.063056 0.0320497 -0.0378677 -0.0540831 0.0249524 0.0239575 0.0256658 0.0962038
internal_weight=101506 26608.7 74897.7 36336.1 16574.3 22538.3 8998.3 4070.41 8353.15 6485.51 13540 5369.44 8221.18 4918.09 5904.87 2316.31 19761.8 2151.42 1714.39 1366.72 1277.83 4918.37 2512.79 3736.98 986.493 1116.07 38561.6 35406.7 32797.6 88.8901
internal_count=458567 146263 312304 162953 86762 129975 44834 16288 50281 29943 85141 23348 36481 20537 24740 11741 76191 11136 8612 6604 6268 19835 14891 14231 4905 6595 149351 137075 126610 336
is_linear=0
shrinkage=0.05


Tree=16
num_leaves=31
num_cat=0
split_feature=2 0 0 0 5 5 1 14 17 17 14 15 12 1 10 17 13 16 11 17 0 1 8 11 11 14 0 11 8 10
split_gain=16889.8 6470.26 4406.11 15104.7 3361.45 2344.77 1761.44 1512.53 1015.16 990.526 983.404 878.018 668.518 616.986 532.017 372.651 339.595 318.785 290.924 228.796 222.311 194.682 267.832 188.695 182.556 182.197 291.964 166.051 370.04 159.972
threshold=-1.9900166274046496 58.500000000000007 40.500000000000007 58.500000000000007 2.5000000000000004 2.5000000000000004 1.0000000180025095e-35 3.5000000000000004 37.251478867694509 29.867795545653344 1.0000000180025095e-35 50.100000000000009 1.5081717440163118 -1.0000000180025095e-35 12220.348154929083 19.845526782240249 1.0000000180025095e-35 95.952297028747068 -8.0702903941041022 3.8457207986322124 49.500000000000007 928987.24000000011 72.767538317739721 -0.14364815176724613 -9.2981597418319453 1.0000000180025095e-35 71.500000000000014 -10.490155045519661 46.292590233218355 1022.7594397548324
decision_type=2 2 2 2 2 2 2 2 2 2 2 2 2 2 2 2 2 2 2 2 2 2 2 2 2 2 2 2 2 2
left_child=2 5 10 4 7 6 11 16 -3 -6 -1 13 -7 -2 -15 21 -4 19 24 -9 -8 22 -12 -13 27 26 -5 -14 -29 -20
right_child=1 8 3 25 9 12 20 17 -10 -11 15 23 18 14 -16 -17 -18 -19 29 -21 -22 -23 -24 -25 -26 -27 -28 28 -30 -31
leaf_value=0.06402239519570456 -0.060329085537668636 0.030814164864837193 -0.015667095038761823 0.0081816138397009502 -0.065726827348797992 -0.063773289426904869 -0.067860130440885166 -0.01110956641788558 -0.062668486848662094 -0.014298665093307903 0.021167018318856364 -0.017164117352768956 -0.052523732441687614 -0.0052850835722603687 0.040968628106385067 0.00031579713414943514 -0.05457985541354974 -0.018186306126993835 0.013604891005195942 0.016317771182606501 -0.024703413874062139 0.024885590051321349 -0.0058696168963923313 -0.06495324432461401 -0.066108438057847316 0.027904017963440067 0.065656326159361927 -0.035657535216276563 0.10367410962915835 -0.028978137875554252
leaf_weight=1466.5950973778963 437.93497098982334 3715.033012509346 782.79741482436657 310.88303209841251 7035.5069968253374 11010.788742035627 2092.8683343678713 1025.0146507322788 314.91190293431282 1080.3694912195206 3412.1574945747852 277.78739649057388 280.28675620257854 4172.7070486694574 730.41584008932114 1836.7950300723314 1980.405999109149 1446.7989661842585 368.18018916249275 2942.3254348486662 348.65237048268318 30334.762186855078 1251.7246110141277 809.994001314044 688.5386375784874 18516.532639801502 765.86663776636124 164.41180743277073 66.980327680706978 549.36488538980484
leaf_count=5734 2811 14224 3571 1353 45422 74005 13025 4263 2064 4859 13360 1403 1615 17568 2969 7414 10977 6366 1569 11304 1866 117737 5106 5192 4202 71911 2927 883 261 2606
internal_value=-8.27674e-05 -0.0347366 0.0120754 -0.000512977 -0.0360852 -0.0454064 -0.0255459 -0.013459 0.0235065 -0.0588817 0.02387 -0.0118137 -0.0588245 -0.00347334 0.00160498 0.022271 -0.0435589 0.00190267 -0.0330902 0.0092302 -0.0617006 0.0234231 0.0139097 -0.0527566 -0.0492939 0.0290676 0.049069 -0.0266493 0.00468011 -0.0118859
internal_weight=100217 26028.9 74188.5 35886.5 16293.2 21998.9 8870.36 8177.34 4029.94 8115.88 38302 6428.84 13128.6 5341.06 4903.12 36835.4 2763.2 5414.14 2117.76 3967.34 2441.52 34998.6 4663.88 1087.78 1200.22 19593.3 1076.75 511.679 231.392 917.545
internal_count=458567 146263 312304 162953 86762 129975 44834 36481 16288 50281 149351 29943 85141 23348 20537 143617 14548 21933 11136 15567 14891 136203 18466 6595 6961 76191 4280 2759 1144 4175
is_linear=0
shrinkage=0.05


Tree=17
num_leaves=31
num_cat=0
split_feature=2 3 7 7 17 16 14 12 15 15 7 9 7 9 13 10 15 9 9 15 14 12 17 14 10 10 10 15 15 9
split_gain=15557.1 10082.1 1280.45 1323.51 1215.59 1037.71 786.535 498.113 771.799 870.264 414.544 1090.75 487.712 987.302 644.121 322.125 304.982 234.705 231.195 218.045 208.699 197.757 252.166 192.497 181.433 151.988 161.204 151.498 326.122 140.007
threshold=-1.9900166274046496 0.70031269337459767 1.0000000180025095e-35 -1.0000000180025095e-35 23.045893967608514 1.0000000180025095e-35 1.0000000180025095e-35 1.5081717440163118 50.100000000000009 49.900000000000006 -1.0000000180025095e-35 9527.9105468750022 1.0000000180025095e-35 12216.919921875002 1.0000000180025095e-35 12220.348154929083 49.900000000000006 17924.164648437505 876.36122589111335 50.100000000000009 1.0000000180025095e-35 4.6829171872251409 1944.6209244792419 3.5000000000000004 818.83642002697013 1022.7594397548324 468.66987324905193 50.650000000000013 49.900000000000006 722.16312713623063
decision_type=2 2 2 2 2 2 2 2 2 2 2 2 2 2 2 2 2 2 2 2 2 2 2 2 2 2 2 2 2 2
left_child=1 4 3 17 6 7 27 8 9 -2 11 -7 14 -14 -12 -4 -8 -3 -16 23 -6 22 25 -18 -5 26 -9 28 -1 -23
right_child=5 2 15 24 20 10 16 21 -10 -11 12 -13 13 -15 18 -17 19 -19 -20 -21 -22 29 -24 -25 -26 -27 -28 -29 -30 -31
leaf_value=0.06808136160695874 -0.063710751426836132 -0.049906995342756021 -0.051444359205825942 0.00029666501660617959 0.041781498284246599 -0.059813381168179372 0.026536886631560452 -0.066960376451467754 -0.062483192142599453 -0.024307204795565238 -0.04175993399647035 0.022649275676383297 -0.056941393982967929 0.022562539496634108 0.01152760783618466 0.029901228611331307 -0.0048211397412583753 0.030267137557906727 -0.010392142243597637 0.022035719711652822 -0.011384498586295477 0.092852169761600115 0.10063979895432631 0.015598982661717862 -0.013157379485121017 -0.031770817488972584 0.029760712460154121 0.06591270666691737 0.0032481380758112924 -0.033145821152539688
leaf_weight=410.0665520131588 2009.2125124484301 2526.6227654367685 3591.6685861349106 4524.3848138600588 196.34020952880383 1759.6038479954004 22521.635393992066 50.994052425026894 4839.0431693196297 4633.9069247245789 1290.3448388874531 519.1987212151289 1617.9561167359352 514.54540246725082 1912.4107001721859 125.82959049940109 1318.4950842857361 94.563384518027306 3241.9058372229338 18728.15006531775 3050.7289915829897 22.144535109400749 54.690961480140686 9234.5700251460075 5614.4420954138041 388.52944400906563 274.00933903455734 1169.3469139486551 368.32360544800758 2327.5526426285505
leaf_count=1616 14365 15472 21871 20965 783 11046 87961 248 34258 23709 7973 2348 10169 2344 8387 533 5502 404 15831 73634 13154 93 177 36046 28089 1792 1082 4717 1557 12441
internal_value=-8.8935e-05 0.0115816 -0.0228657 -0.0153417 0.0215401 -0.0337744 0.0233349 -0.0424798 -0.0472929 -0.0362263 -0.0220659 -0.0410229 -0.0170283 -0.0377556 -0.0101685 -0.0486889 0.0221618 -0.0470116 -0.0022582 0.0187965 -0.00816699 -0.0247522 -0.00272217 0.0130472 -0.00715316 -0.0106647 0.0145536 0.0545286 0.0374139 -0.0319523
internal_weight=98931.2 73475.2 16477.5 12760 56997.7 25456 53750.6 14600.1 11482.2 6643.12 10856 2278.8 8577.16 2132.5 6444.66 3717.5 51802.9 2621.19 5154.32 29281.2 3247.07 3117.92 768.224 10553.1 10138.8 713.533 325.003 1947.74 778.39 2349.7
internal_count=458567 312304 87334 64930 224970 146263 211033 88165 72332 38074 58098 13394 44704 12513 32191 22404 203143 15876 24218 115182 13937 15833 3299 41548 49054 3122 1330 7890 3173 12534
is_linear=0
shrinkage=0.05


Tree=18
num_leaves=31
num_cat=0
split_feature=2 3 0 0 5 1 13 1 1 17 14 15 17 1 9 1 1 14 7 7 3 9 16 10 0 14 17 13 0 17
split_gain=14261 9170.77 9622.65 5839.62 2293.73 1673.45 1108 932.664 1269.18 903.727 859.658 802.995 661.338 564.891 441.847 437.57 416.305 385.697 340.746 373.021 298.507 262.289 243.771 226.859 222.303 203.79 194.475 185.526 175.499 162.144
threshold=-1.9900166274046496 0.70031269337459767 62.500000000000007 58.500000000000007 2.5000000000000004 1.0000000180025095e-35 1.0000000180025095e-35 548841.53500000015 -433052.35999999993 37.251478867694509 1.0000000180025095e-35 50.100000000000009 417.05936890654039 -1.0000000180025095e-35 4168.1928527832033 548841.53500000015 -1.0000000180025095e-35 5.5000000000000009 -1.0000000180025095e-35 1.0000000180025095e-35 1.4146194552259452 3857.9782348632816 45.407300594563203 12220.348154929083 49.500000000000007 1.0000000180025095e-35 4.207903265094461 1.0000000180025095e-35 76.500000000000014 8.3653921778231908
decision_type=2 2 2 2 2 2 2 2 2 2 2 2 2 2 2 2 2 2 2 2 2 2 2 2 2 2 2 2 2 2
left_child=1 6 7 4 5 11 22 8 27 -5 -8 13 -6 -2 -15 16 -12 -18 -14 21 25 -20 -1 -10 -7 -4 -19 -3 -22 -17
right_child=3 2 20 9 12 24 10 -9 23 -11 15 -13 18 14 -16 29 17 26 19 -21 28 -23 -24 -25 -26 -27 -28 -29 -30 -31
leaf_value=0.022481306757695725 -0.058258016107785471 -0.021199881726828369 0.067080802777187962 0.029626322122978346 -0.062188965966143595 -0.066063881229938989 0.055156402834310038 -0.062976561341464343 -0.010660482482863722 -0.060914264634960802 0.02356087302164506 -0.050356051695799424 -0.06665021577511511 -0.0043535483230711085 0.035128129092566199 0.025701702480753 -0.035026937578823823 -0.014266650444236462 -0.011656243452261161 -0.067018550642932273 -0.068500497612700148 0.12488444513969194 -0.012664134393317667 0.052407373618837398 -0.022272211834441644 0.029370078641110534 0.012086660850700259 -0.065490009327831111 0.028727236966663922 0.019343926433519863
leaf_weight=594.47583454847336 413.1818263977766 270.4602455496788 384.93245555460453 3685.4099578410387 10280.366925105453 1983.0450167804956 1930.0165215134621 6133.4574260115623 2079.9544224441051 297.75811752676964 3758.6773716062307 1032.0893108099699 522.28252749145031 4006.1978661119938 860.78557080030441 26155.557334437966 630.1876355856657 875.04640400409698 1234.926883906126 335.78033332526684 119.82914456725121 36.098852232098579 2897.1080981194973 152.9630753993988 339.9822900891304 5213.5236976146698 3496.7455170452595 1906.3743925988674 75.553031727671623 16282.833668038249
leaf_count=2277 2811 1368 1425 14224 73042 13025 7996 41223 9146 2064 14980 6595 3422 16980 3557 102636 2815 3584 6362 2188 635 127 12577 562 1866 20020 13528 12664 291 64577
internal_value=-9.01907e-05 0.011082 -0.0219196 -0.0326579 -0.0431653 -0.0233757 0.0206043 -0.050366 -0.0328239 0.0228554 0.0223973 -0.0100215 -0.0569355 -0.00213574 0.00262882 0.0211622 0.0109874 0.00153791 -0.0315647 -0.0201538 0.0298443 -0.00776485 -0.00667838 -0.00633571 -0.0596582 0.031965 0.0068105 -0.0599907 -0.0308821 0.0232625
internal_weight=97985.6 72957.7 16337 25027.9 21044.7 8635.28 56620.6 10543.2 4409.75 3983.17 53129.1 6312.25 12409.5 5280.17 4866.98 51199 8760.66 5001.98 2129.09 1606.81 5793.84 1271.03 3491.58 2232.92 2323.03 5598.46 4371.79 2176.83 195.382 42438.4
internal_count=458567 312304 87334 146263 129975 44834 224970 64963 23740 16288 210116 29943 85141 23348 20537 202120 34907 19927 12099 8677 22371 6489 14854 9708 14891 21445 17112 14032 926 167213
is_linear=0
shrinkage=0.05


Tree=19
num_leaves=31
num_cat=0
split_feature=16 3 0 1 1 17 0 10 1 15 12 1 14 17 0 0 3 12 12 13 3 14 16 14 17 10 0 7 0 3
split_gain=10478.2 7996.25 10855.9 1570.91 1878.53 1254.34 705.133 538.403 507.234 518.178 827.497 583.631 445.839 440.937 392.626 316.469 476.793 260.154 259.071 250.161 237.031 240.401 236.961 231.769 202.431 200.019 202.471 183.985 171.094 210.638
threshold=1.0000000180025095e-35 0.70031269337459767 62.500000000000007 199181.22500000003 -93073.179999999978 29.867795545653344 57.500000000000007 12220.348154929083 -1.0000000180025095e-35 50.100000000000009 1.5081717440163118 1.0000000180025095e-35 1.0000000180025095e-35 19.323725724367527 40.500000000000007 49.500000000000007 0.99275227165523772 4.6829171872251409 0.045487854568018703 1.0000000180025095e-35 1.4146194552259452 1.0000000180025095e-35 8.4915534416294083 1.0000000180025095e-35 1944.6209244792419 1500.2624237654941 45.500000000000007 -0.0012582410623314109 37.500000000000007 0.60045912326242401
decision_type=2 2 2 2 2 2 2 2 2 2 2 2 2 2 2 2 2 2 2 2 2 2 2 2 2 2 2 2 2 2
left_child=8 5 3 4 19 6 12 -6 -1 11 -11 13 14 -10 22 -5 -17 24 -7 -3 21 -4 -2 27 -12 26 -14 -8 -15 -30
right_child=1 2 20 15 7 18 23 -9 9 10 17 -13 25 28 -16 16 -18 -19 -20 -21 -22 -23 -24 -25 -26 -27 -28 -29 29 -31
leaf_value=-0.062203474828120844 -0.008145056307643091 -0.023894603655001706 0.0668737159619575 -0.063968825940024371 -0.0099041980816622893 -0.010925860525535715 -0.040148059585682259 0.039631731298558126 0.011841147265170292 -0.060512295109607428 -0.0032930771137400596 -0.062190158087405426 0.016173689602969995 -0.038091109191202482 -0.031014087361340738 0.013311576028833195 -0.053674615056441478 -0.033691726126132839 -0.051276482383062927 -0.064352713526372812 -0.015908685410592125 0.029104939223442278 0.054933881821627208 0.025161777068331032 0.09716411787080366 0.0077512275099209382 -0.0030576106416996453 0.063971437639309153 0.00071220396317157441 -0.029287026752915425
leaf_weight=2196.6089455485344 167.71581497788429 473.50787575542927 450.91030316054821 6919.5680342167616 2086.2763613462448 2013.6890598386526 45.670362502336502 744.07640099525452 931.99568119645119 3764.6969882547855 619.33658321201801 936.59777297079563 28064.26738281548 1754.4865425825119 176.75458239018917 340.32454109191895 1208.0930591225624 1252.1907640099525 495.82942681014538 1991.3973270356655 273.07729640603065 6467.2662634551525 1314.7091872990131 14684.245522752404 54.460269331932068 12803.449063256383 1438.3089688718319 576.77317345142365 955.3548140078783 1508.5239898562431
leaf_count=16811 914 2532 1695 49027 9138 8909 205 3091 3666 28608 2694 7186 115060 9642 769 1739 7849 7206 2996 13684 1242 24986 5716 58355 177 54281 5832 2382 4073 8102
internal_value=-9.60494e-05 0.00666776 -0.0200225 -0.0460365 -0.0246727 0.0157205 0.0171865 0.00311756 -0.040142 -0.0360264 -0.0468744 -0.0258833 0.0139683 -0.0192788 0.039394 -0.0593949 -0.0389487 -0.0202122 -0.018902 -0.056584 0.0297645 0.0315683 0.0477939 0.0264295 0.00483226 0.0129709 0.0152359 0.0563187 -0.0261557 -0.0176534
internal_weight=96710.2 82735.9 20954.5 13763.2 5295.26 61781.4 59271.9 2830.35 13974.3 11777.6 5690.68 6086.96 43965.2 5150.36 1659.18 8467.99 1548.42 1925.99 2509.52 2464.91 7191.25 6918.18 1482.43 15306.7 673.797 42306 29502.6 622.444 4218.37 2463.88
internal_count=458567 370402 114983 87060 28445 255419 243514 12229 88165 71354 38685 32669 182572 25483 7399 58615 9588 10077 11905 16216 27923 26681 6630 60942 2871 175173 120892 2587 21817 12175
is_linear=0
shrinkage=0.05


Tree=20
num_leaves=31
num_cat=0
split_feature=2 3 0 0 5 1 13 1 1 14 12 15 12 1 1 1 9 14 15 3 0 16 9 14 12 16 0 5 12 8
split_gain=12393.1 7727.7 8252.11 5109.4 2144.97 1613.26 939.023 906.273 1079.84 778.727 748.579 711.909 659.662 512.13 392.434 369.318 368.594 348.198 256.043 253.666 227.989 211.773 200.086 184.917 181.726 166.945 163.949 157.982 150.507 152.366
threshold=-1.9900166274046496 0.70031269337459767 62.500000000000007 58.500000000000007 2.5000000000000004 1.0000000180025095e-35 1.0000000180025095e-35 1862326.4800000002 -1007108.7949999999 1.0000000180025095e-35 0.10046446913568451 50.100000000000009 1.5081717440163118 -1.0000000180025095e-35 548841.53500000015 -1.0000000180025095e-35 12216.919921875002 3.5000000000000004 99.800000000000011 1.4146194552259452 49.500000000000007 45.407300594563203 12216.919921875002 1.0000000180025095e-35 1.5081717440163118 1.0000000180025095e-35 79.500000000000014 1.5000000000000002 4.6829171872251409 46.33039195982996
decision_type=2 2 2 2 2 2 2 2 2 2 2 2 2 2 2 2 2 2 2 2 2 2 2 2 2 2 2 2 2 2
left_child=1 6 7 4 5 11 21 8 -3 -8 25 13 -6 -2 15 -11 27 -17 -14 23 -7 -1 -10 -4 -13 -5 -21 -15 29 -20
right_child=3 2 19 10 12 20 9 -9 22 14 -12 24 18 16 -16 17 -18 -19 28 26 -22 -23 -24 -25 -26 -27 -28 -29 -30 -31
leaf_value=0.021101830359224166 -0.056633007574677999 -0.058654826875917422 0.063717095379543384 -0.041995036484465315 -0.06058396747371763 -0.065072071883113355 0.052680636763809047 -0.0614825381589479 -0.01261735726520341 0.021820832912496885 -0.053493359915990225 -0.061197861106148638 -0.066174291568826302 -0.075223754398414458 0.021539605449299497 -0.034802291408725372 0.036656655871136749 0.005860846927821615 0.012888906320108208 -0.061965269292152084 -0.020161875096027446 -0.011726722640497308 0.046717243158329279 0.026910205084489019 -0.012710136102864601 0.029265301081602271 0.035782377150556675 -0.0014876970994702231 -0.031902985483034794 -0.049431080584869204
leaf_weight=591.89233952760696 391.31909112632275 1974.7903223931789 365.78577920794487 84.017389997839928 9682.8823189660907 1912.2235658317804 1836.3449281007051 5569.7711987644434 2293.4871836006641 3707.6475927978754 308.91516694426537 714.28452450037003 378.54385639727116 73.868123233318329 41915.922692835331 598.04054823517799 690.21808171272278 4392.5081193745136 463.72270046174526 127.43117862939835 332.12937133014202 2884.9482882320881 151.33887484669685 5128.2346997410059 265.35903686285019 3512.9070652276278 64.492634549736977 4068.7118214517832 1046.4647811055183 124.27755615115166
leaf_count=2277 2811 13638 1425 439 74005 13025 7996 40275 10470 14980 2133 5197 2502 398 167213 2692 2969 17235 1880 681 1866 12577 580 20020 1398 13716 245 17170 6146 608
internal_value=-0.000100078 0.0103303 -0.020696 -0.0311542 -0.0413023 -0.0221035 0.0190265 -0.0480661 -0.0311561 0.0206946 0.0211822 -0.00896017 -0.0551692 -0.00162413 0.0195339 0.0098679 0.00283007 0.000986393 -0.0291191 0.0273884 -0.0584295 -0.00613615 -0.00894064 0.0293628 -0.0480716 0.0275983 -0.0290913 -0.00280551 -0.0205305 -0.000280479
internal_weight=95652.5 71602.6 15675.3 24049.8 20144 8448.11 55927.3 9989.39 4419.62 52450.5 3905.84 6203.76 11695.9 5224.12 50614.1 8698.2 4832.8 4990.55 2013.01 5685.94 2244.35 3476.84 2444.83 5494.02 979.644 3596.92 191.924 4142.58 1634.47 588
internal_count=458567 312304 87334 146263 129975 44834 224970 64963 24688 210116 16288 29943 85141 23348 202120 34907 20537 19927 11136 22371 14891 14854 11050 21445 6595 14155 926 17568 8634 2488
is_linear=0
shrinkage=0.05


Tree=21
num_leaves=31
num_cat=0
split_feature=2 3 0 0 5 1 1 1 13 14 12 15 12 1 1 9 1 14 15 3 0 11 13 11 14 10 13 11 14 0
split_gain=11424.4 7057.24 7651.08 4748.39 2076.94 1527.22 894.445 1108.42 855.986 739.398 686.873 665.042 657.61 478.176 359.51 340.4 337.105 316.352 246.223 231.344 223.873 198.063 189.037 178.688 176.726 175.489 168.973 157.023 154.76 152.346
threshold=-1.9900166274046496 0.70031269337459767 62.500000000000007 58.500000000000007 2.5000000000000004 1.0000000180025095e-35 548841.53500000015 -433052.35999999993 1.0000000180025095e-35 1.0000000180025095e-35 0.10046446913568451 50.100000000000009 1.5081717440163118 -1.0000000180025095e-35 548841.53500000015 4168.1928527832033 -1.0000000180025095e-35 5.5000000000000009 99.800000000000011 1.4146194552259452 49.500000000000007 -0.11131352806250822 1.0000000180025095e-35 -0.14364815176724613 1.0000000180025095e-35 12220.348154929083 1.0000000180025095e-35 -6.5133562060136851 5.5000000000000009 76.500000000000014
decision_type=2 2 2 2 2 2 2 2 2 2 2 2 2 2 2 2 2 2 2 2 2 2 2 2 2 2 2 2 2 2
left_child=1 8 6 4 5 11 7 22 -1 -10 -5 13 -6 -2 16 -15 -11 -18 -14 24 -7 -16 -3 -13 -4 28 -8 -20 -9 -21
right_child=3 2 19 10 12 20 26 25 9 14 -12 23 18 15 21 -17 17 -19 27 29 -22 -23 -24 -25 -26 -27 -28 -29 -30 -31
leaf_value=-0.0058386606013543889 -0.055648292548279625 -0.017051672662272144 0.0622253883269729 0.026458133798802776 -0.059796851063593309 -0.064125977400058445 -0.023410957680515935 -0.035856755015881293 0.051385234901579674 0.020890621104055724 -0.052160349631088711 -0.012062603684017341 -0.065148637301905996 -0.0033557519222944254 -0.018602579333246685 0.03186669238664671 -0.032318489255291086 0.0057088522015324031 -0.031405557254399724 -0.064455717564162726 -0.019332464021280877 0.020911306304813321 -0.062746398354956767 -0.060424450765051735 0.025778489330865163 0.047618039687634998 -0.062250720161839412 0.0010215123698595725 -0.0020068273715963952 0.027323269995250511
leaf_weight=3471.2448092103004 378.65545211732388 261.13136145472527 356.07641045749187 3565.1376419663429 9328.8028965070844 1845.1164875850081 296.47649858891964 425.16167639195919 1789.7018342167139 3679.8320987075567 301.17031763494015 264.84125867486 365.60772819817066 3990.2175935506821 319.38218170404434 828.21095697581768 625.25191830098629 4359.7386309653521 1034.63028678298 114.0683406740427 329.14168111979961 41308.401213660836 1718.4854263141751 688.0648345053196 5086.7841034531593 146.58654268085957 5232.4997179284692 583.58063417673111 1641.1561298966408 74.698608741164207
leaf_count=14854 2811 1368 1425 14155 74005 13025 1692 2102 7996 14980 2133 1403 2502 16980 1333 3557 2815 17112 6173 635 1866 165880 12664 5192 20020 562 39531 2461 7044 291
internal_value=-0.000105339 0.00990837 -0.0200969 -0.0303158 -0.0402881 -0.0213304 -0.0469617 -0.0295416 0.0182009 0.0198033 0.0203316 -0.00859499 -0.0542371 -0.00155316 0.0186792 0.00269792 0.00941212 0.000937645 -0.0280886 0.0262771 -0.0573486 0.020608 -0.0567225 -0.0469912 0.0281649 -0.00522245 -0.0601694 -0.0197088 -0.00897554 -0.0281153
internal_weight=94409.9 70906.7 15353.1 23503.2 19636.9 8324.25 9721.5 4192.52 55553.6 52082.3 3866.31 6149.99 11312.6 5197.08 50292.6 4818.43 8664.82 4984.99 1983.82 5631.63 2174.26 41627.8 1979.62 952.906 5442.86 2212.9 5528.98 1618.21 2066.32 188.767
internal_count=458567 312304 87334 146263 129975 44834 64963 23740 224970 210116 16288 29943 85141 23348 202120 20537 34907 19927 11136 22371 14891 167213 14032 6595 21445 9708 41223 8634 9146 926
is_linear=0
shrinkage=0.05


Tree=22
num_leaves=31
num_cat=0
split_feature=16 3 0 1 1 17 0 1 15 11 1 10 17 0 3 7 7 12 11 0 12 10 13 3 17 16 10 10 0 3
split_gain=8255.89 6109.82 8679.12 1432.22 1579.61 979.463 569.868 495.183 469.445 786.012 533.606 436.643 368.323 325.252 458.215 259.903 312.817 497.706 354.044 245.355 228.658 194.147 190.892 182.935 167.405 159.507 150.647 270.191 149.987 170.168
threshold=1.0000000180025095e-35 0.70031269337459767 62.500000000000007 199181.22500000003 -433052.35999999993 29.867795545653344 57.500000000000007 -1.0000000180025095e-35 50.100000000000009 -0.37282265937539422 1.0000000180025095e-35 12220.348154929083 19.323725724367527 49.500000000000007 0.99275227165523772 -1.0000000180025095e-35 1.0000000180025095e-35 5.7210971400804613 -6.5133562060136851 40.500000000000007 0.090389821752536056 1500.2624237654941 1.0000000180025095e-35 1.4146194552259452 2.4989387130339336 16.711662383701352 1234.9649454388527 1022.7594397548324 37.500000000000007 0.60045912326242401
decision_type=2 2 2 2 2 2 2 2 2 2 2 2 2 2 2 2 2 2 2 2 2 2 2 2 2 2 2 2 2 2
left_child=7 5 3 4 22 6 19 -1 10 15 12 -6 24 -5 -15 -10 17 18 -17 21 -7 -2 -3 -4 -9 -23 27 -20 -14 -30
right_child=1 2 23 13 11 20 -8 8 9 -11 -12 -13 28 14 -16 16 -18 -19 26 -21 -22 25 -24 -25 -26 -27 -28 -29 29 -31
leaf_value=-0.060197202898457147 0.015691726516305803 -0.021921463629535544 0.027994946781992398 -0.061620010951356566 -0.0092935173442314518 -0.010566387478155782 0.023495418898610853 -0.032586894669521804 -0.067179238583659304 -0.058271803323703478 -0.060204330499413899 0.035862791310920371 -0.034965627168042183 0.016255556925507505 -0.050650690579915038 -0.032565619131202074 -0.067995461558641043 0.10918185445907419 0.029550345010973169 0.00077061025701593081 -0.052669846815618752 -0.018050293478188959 -0.06176737342057486 -0.014287006864509672 0.021555495814624827 0.0092754028099787094 0.057632486086792362 -0.060150311156677495 0.00090594898773631446 -0.026268669050488871
leaf_weight=1957.2894720360637 27405.201098278165 362.90684857964516 6728.4332893639803 6196.9006663039327 2191.2213410139084 2088.769237279892 14926.74378105998 175.83101643621922 233.49476538598537 3357.9969094991684 834.38979998975992 708.28871950507164 1678.5467610508204 332.1922971457243 1112.1135966032743 762.87334325909615 208.50682102143764 93.226741909980774 275.6892526447773 4262.7432407438755 381.39858766645193 561.4480295330286 1766.0374700278044 265.70835627615452 756.34249509871006 10862.763494700193 177.80981186032295 120.58107125759125 954.65216632187366 1451.3330696374178
leaf_count=16811 115318 2109 26681 49027 9737 9315 60942 765 1508 28608 7186 3091 9642 1739 7849 4555 1332 350 1086 17247 2590 3187 13508 1242 2901 46820 668 578 4073 8102
internal_value=-0.000110512 0.00589177 -0.01832 -0.0430008 -0.0222753 0.0137626 0.0150755 -0.0370089 -0.0329122 -0.0437983 -0.0231798 0.00173634 -0.0170197 -0.0566385 -0.0352586 -0.0178339 -0.010796 -0.00244922 -0.0102447 0.0121587 -0.0170711 0.0134088 -0.0549788 0.0263878 0.0113351 0.00793189 0.0194086 0.00223443 -0.0234922 -0.0154846
internal_weight=93191.4 80152.9 19663.8 12669.7 5028.45 60489.1 58018.9 13038.6 11081.3 5230.18 5851.1 2899.51 5016.71 7641.21 1444.31 1872.18 1638.69 1430.18 1336.95 43092.2 2470.17 38829.4 2128.94 6994.14 932.174 11424.2 574.08 396.27 4084.53 2405.99
internal_count=458567 370402 114983 87060 28445 255419 243514 88165 71354 38685 32669 12828 25483 58615 9588 10077 8569 7237 6887 182572 11905 165325 15617 27923 3666 50007 2332 1664 21817 12175
is_linear=0
shrinkage=0.05


Tree=23
num_leaves=31
num_cat=0
split_feature=2 3 0 0 5 1 1 1 17 17 17 14 1 9 14 1 8 0 3 17 14 0 0 17 17 14 17 10 13 0
split_gain=9934 5948.75 6579.11 4171.36 1917.89 1477.92 872.109 947.758 788.487 666.829 656.138 614.585 548.641 383.574 310.033 284.29 236.801 208.726 196.733 173.356 172.321 168.667 458.542 165.443 166.209 162.809 161.44 156.419 152.89 141.906
threshold=-1.9900166274046496 0.70031269337459767 62.500000000000007 57.500000000000007 2.5000000000000004 1.0000000180025095e-35 1862326.4800000002 -1007108.7949999999 23.045893967608514 412.25977701188987 37.251478867694509 1.0000000180025095e-35 -1.0000000180025095e-35 12216.919921875002 2.5000000000000004 548841.53500000015 18.066553067832633 49.500000000000007 1.4146194552259452 4.207903265094461 1.0000000180025095e-35 40.500000000000007 60.500000000000007 115.71001816823882 2.8730363727560269 1.0000000180025095e-35 8.5516284487925862 12220.348154929083 1.0000000180025095e-35 76.500000000000014
decision_type=2 2 2 2 2 2 2 2 2 2 2 2 2 2 2 2 2 2 2 2 2 2 2 2 2 2 2 2 2 2
left_child=1 8 6 4 5 12 7 28 11 -6 -5 21 -2 14 -14 16 -13 -7 20 -18 -4 -1 -23 24 -16 -10 -17 -9 -3 -20
right_child=3 2 18 10 9 17 -8 27 25 -11 -12 15 13 -15 23 26 19 -19 29 -21 -22 22 -24 -25 -26 -27 -28 -29 -30 -31
leaf_value=0.058905467705873321 -0.056178529196853545 -0.016233747150239144 0.060216952733449583 0.023857589624653015 -0.058987959948041693 -0.063274566424517953 -0.059055116235081251 -0.010921427456243089 0.038086097206883607 -0.027636165147307042 -0.057208149573994498 0.020524661069287201 -0.029390266875053073 0.033182656922252973 -0.0254781219676804 0.021428128465941228 -0.015231777410199718 -0.018719443344722805 -0.062440627056144261 0.0073005439184159644 0.023513403083552969 -0.045314178731255289 0.053925743945894458 -0.014329040289095436 0.013450694367226262 -0.010120044769210726 0.014928493022953578 0.042576032657230888 -0.061169564553251433 0.026762755907739317
leaf_weight=1137.8313547074795 533.58075795322657 215.696403414011 341.81232284009457 3609.2904855832458 8484.7895730286837 1774.3797867447138 4990.6578365936875 2268.6506638675928 185.84741255640984 2120.8969972878695 268.02711620926857 3037.8266213238239 1245.283975020051 643.76835875213146 319.71920032799244 25951.147845610976 1035.7349359691143 309.08253236114979 110.66658441722393 4850.6301653385162 5000.0667950361967 162.85462446510792 407.07441367208958 1338.7399661391973 1919.3629292845726 3008.1902009546757 15133.439822733402 145.26314283907413 1570.1179124265909 74.448907449841499
leaf_count=5239 4238 1161 1425 14624 71673 13025 40275 10468 783 13248 2164 12128 7363 2904 1384 105207 4287 1798 635 19658 20020 730 1921 6038 7804 13154 61863 582 12477 291
internal_value=-0.000114501 0.00922924 -0.0190001 -0.0289438 -0.0387351 -0.0203878 -0.0449249 -0.0281313 0.0167955 -0.0527191 0.0182511 0.0182845 -0.00778893 -0.00306412 -0.00790382 0.017277 0.00918703 -0.0566684 0.0241074 0.00333483 0.025864 0.0477811 0.0255566 -0.000423311 0.00788891 -0.00731247 0.0190342 -0.00769839 -0.0557461 -0.0265431
internal_weight=92194.9 69628 14717.4 22566.9 18689.6 8083.92 9190.39 4199.73 54910.6 10605.7 3877.32 51716.5 6000.46 5466.87 4823.11 50008.8 8924.19 2083.46 5526.99 5886.37 5341.88 1707.76 569.929 3577.82 2239.08 3194.04 41084.6 2413.91 1785.81 185.115
internal_count=458567 312304 87334 146263 129475 44554 64963 24688 224970 84921 16788 211033 29731 25493 22589 203143 36073 14823 22371 23945 21445 7890 2651 15226 9188 13937 167070 11050 13638 926
is_linear=0
shrinkage=0.05


Tree=24
num_leaves=31
num_cat=0
split_feature=16 3 0 5 5 17 15 17 14 14 15 13 0 10 15 0 14 12 15 12 17 5 0 0 9 3 14 13 0 9
split_gain=7042.1 5105.83 7479.95 1682.38 1506.31 817.934 628.011 625.6 573.077 571.009 526.158 522.669 450.789 299.878 296.132 224.503 220.765 208.753 204.868 179.323 160.825 176.346 156.324 208.105 234.732 153.615 211.472 150.587 147.894 157.985
threshold=1.0000000180025095e-35 0.70031269337459767 62.500000000000007 2.5000000000000004 2.5000000000000004 29.867795545653344 50.100000000000009 412.25977701188987 2.5000000000000004 1.0000000180025095e-35 49.250000000000007 1.0000000180025095e-35 57.500000000000007 12220.348154929083 60.050000000000004 49.500000000000007 5.5000000000000009 0.045487854568018703 99.800000000000011 0.11952347606087278 112.37219337118565 1.5000000000000002 72.500000000000014 39.500000000000007 11224.476562500002 1.4146194552259452 1.0000000180025095e-35 1.0000000180025095e-35 48.500000000000007 1393.5360534667971
decision_type=2 2 2 2 2 2 2 2 2 2 2 2 2 2 2 2 2 2 2 2 2 2 2 2 2 2 2 2 2 2
left_child=3 5 4 8 6 9 10 -5 19 14 -3 15 28 16 22 -6 -12 -7 -9 -1 21 -10 23 -2 -25 26 -4 -8 29 -11
right_child=1 2 25 7 11 17 27 18 20 12 13 -13 -14 -15 -16 -17 -18 -19 -20 -21 -22 -23 -24 24 -26 -27 -28 -29 -30 -31
leaf_value=-0.045711442427383432 0.028402199898645022 -0.043907048279365563 0.060931229146527405 -0.058716539298190887 -0.061880948298821625 -0.0088159629348229639 -0.018781321193790626 -0.061889559260388895 -0.061850296967534447 0.012969902350963175 -0.043187473327579579 -0.059579945808052072 0.020526147931932845 0.033491125000147497 0.058401251129160114 -0.0083408073202183609 0.0029469325672670521 -0.046554229079345581 -0.019665588296440238 -0.0046076242985200926 -0.012549034493636844 0.012984361192577128 0.061622059506421724 -0.054961400470994161 0.048352071727177454 -0.013215055386413307 0.023534868129528711 -0.058782264595892197 -0.0051457129043289982 0.0062439645364626428
leaf_weight=1244.7426005527377 561.70344877243042 692.22577545046806 402.73221303522587 5469.7296415492892 260.31302271038294 1993.215317890048 321.7899008244276 343.71891717612743 82.337036453187466 26583.929766520858 318.21855241060257 6629.9536007344723 14131.109568372369 686.48798798024654 1040.6435676664114 790.46396595239639 1398.0130428373814 449.07642129063606 1753.6305936276913 337.61098340153694 1490.383284419775 1739.5630617141724 187.91915732622147 190.48922416567802 77.134007021784782 261.85489359498024 6203.3476735949516 880.52872942388058 1516.8901598006487 13005.985120743513
leaf_count=8900 2888 5016 1695 49898 2091 8909 1912 2555 683 112204 1603 56424 58355 3099 5022 4279 5819 2996 10710 1738 6721 6960 830 905 341 1242 24986 6817 6276 56693
internal_value=-0.00011834 0.00541911 -0.0172717 -0.0350379 -0.0411241 0.0125776 -0.0174168 -0.0498133 -0.0121935 0.0137856 -0.00550092 -0.0543869 0.012822 0.0055632 0.0396468 -0.0216139 -0.00560628 -0.0157588 -0.0265904 -0.0369455 -0.000366645 0.00959641 0.0204522 0.0111111 -0.0251589 0.0243273 0.0258163 -0.048083 0.0101734 0.0107605
internal_weight=91045.7 78584 18845.9 12461.7 11978 59738.1 4297.26 7567.08 4894.64 57295.8 3094.95 7680.73 55237.9 2402.72 2057.89 1050.78 1716.23 2442.29 2097.35 1582.35 3312.28 1821.9 1017.25 829.327 267.623 6867.93 6606.08 1202.32 41106.8 39589.9
internal_count=458567 370402 114983 88165 87060 255419 24266 63163 25002 243514 15537 62794 233528 10521 9986 6370 7422 11905 13265 10638 14364 7643 4964 4134 1246 27923 26681 8729 175173 168897
is_linear=0
shrinkage=0.05


Tree=25
num_leaves=31
num_cat=0
split_feature=2 3 0 0 5 1 1 1 17 17 17 14 15 1 7 7 11 11 9 1 9 0 17 11 3 14 14 0 0 15
split_gain=8653.97 5019.23 5660.48 3662.84 1766.82 1407.23 850.83 873.563 680.582 678.521 568.693 552.838 535.016 391.714 335.325 359.643 267.129 383.655 338.012 260.555 233.85 216.755 209.117 175.037 167.444 157.997 155.047 152.044 380.489 158.723
threshold=-1.9900166274046496 0.70031269337459767 62.500000000000007 57.500000000000007 2.5000000000000004 1.0000000180025095e-35 1862326.4800000002 -1007108.7949999999 412.25977701188987 21.268725976877104 37.251478867694509 1.0000000180025095e-35 50.100000000000009 -1.0000000180025095e-35 -1.0000000180025095e-35 1.0000000180025095e-35 -9.2981597418319453 -8.0702903941041022 2160.9496276855475 548841.53500000015 12216.919921875002 49.500000000000007 4.207903265094461 -0.14364815176724613 1.4146194552259452 1.0000000180025095e-35 1.0000000180025095e-35 40.500000000000007 60.500000000000007 69.950000000000017
decision_type=2 2 2 2 2 2 2 2 2 2 2 2 2 2 2 2 2 2 2 2 2 2 2 2 2 2 2 2 2 2
left_child=1 9 6 4 5 12 7 -3 -6 11 -5 27 13 -2 -10 16 18 -18 -16 22 -15 -7 -13 -14 25 -4 -11 -1 29 -29
right_child=3 2 24 10 8 21 -8 -9 14 26 -12 19 23 20 15 -17 17 -19 -20 -21 -22 -23 -24 -25 -26 -27 -28 28 -30 -31
leaf_value=0.057239463238371029 -0.053180936377504533 -0.054076663312683383 0.057685556390634968 0.022048338243555742 -0.057825753535590031 -0.062528984810212643 -0.057652052580122098 -0.0069218245247892139 -0.062429885832678444 0.035851803911422175 -0.055853969202482104 -0.011388144349531273 -0.0089976110675378598 -0.0016372175757718437 -0.064404434401404267 -0.062736671239729799 -0.05945044422789432 0.0063009086951760808 0.094239505013690938 0.017819888574107864 0.031233466639718089 -0.016485059601341161 0.011330225943402182 -0.058396234521680773 -0.025090004048329829 0.021523388393801759 -0.0071113298662887807 -0.067793425802050167 0.051871277312831678 0.051502959115151806
leaf_weight=1047.0602058023214 335.76806386560202 1666.2951184362173 321.96020272374153 3553.0734960138798 7892.8366829231381 1708.9699011221528 4626.0417549833655 2392.7405680567026 475.77676482498646 222.66714210808277 250.67999186366796 1169.5712936222553 255.6342316865921 4095.1852547079325 44.8438431173563 311.78883208334446 307.42505218088627 795.98059317469597 132.48769763112068 40118.790240138769 623.31649623811245 301.01570473611355 7550.0742837488651 602.96885001659393 181.4207558631897 4920.2190936803818 3655.8136224150658 122.14913445711136 374.31909173727036 35.991715237498283
leaf_count=5114 2789 13638 1425 14624 71673 13025 40275 11050 3724 979 2164 4810 1394 17497 295 2426 2158 4118 527 165032 2899 1798 30612 5152 926 20020 15843 555 1879 146
internal_value=-0.000120916 0.00860464 -0.0179648 -0.0276422 -0.0371187 -0.0194957 -0.0429919 -0.0262817 -0.0511349 0.0155087 0.0169117 0.017059 -0.00720841 -0.00100808 -0.0255979 -0.0145878 -0.00285833 -0.0120176 0.0540795 0.0161172 0.00270453 -0.0556371 0.00828233 -0.0436972 0.0221114 0.0237464 -0.00464263 0.0461735 0.0243968 -0.0405954
internal_weight=90092.9 68405.1 14108.7 21687.8 17884 7922.86 8685.08 4059.04 9961.14 54296.4 3803.75 50418 5912.87 5054.27 2068.3 1592.53 1280.74 1103.41 177.332 48838.4 4718.5 2009.99 8719.65 858.603 5423.6 5242.18 3878.48 1579.52 532.46 158.141
internal_count=458567 312304 87334 146263 129475 44554 64963 24688 84921 224970 16788 208148 29731 23185 13248 9524 7098 6276 822 200454 20396 14823 35422 6546 22371 21445 16822 7694 2580 701
is_linear=0
shrinkage=0.05


Tree=26
num_leaves=31
num_cat=0
split_feature=0 3 17 5 15 5 1 15 17 13 17 7 0 10 5 5 7 5 10 0 12 11 0 17 3 0 0 13 15 11
split_gain=4416.97 7881.67 3000.04 1785.13 686.439 678.91 620.889 510.678 403.237 393.467 327.33 306.255 297.107 296.93 299.377 499.561 287.675 281.504 281.19 279.652 250.23 204.427 159.427 153.869 141.347 125.731 119.075 115.466 106.978 106.064
threshold=62.500000000000007 0.70031269337459767 29.867795545653344 2.5000000000000004 50.100000000000009 2.5000000000000004 -92304915.459999993 49.250000000000007 37.251478867694509 1.0000000180025095e-35 417.05936890654039 -1.0000000180025095e-35 49.500000000000007 1518.770100052159 2.5000000000000004 3.5000000000000004 1.0000000180025095e-35 2.5000000000000004 12220.348154929083 49.500000000000007 5.7210971400804613 -8.0702903941041022 50.500000000000007 2.551116209606072 1.4146194552259452 34.500000000000007 43.500000000000007 1.0000000180025095e-35 73.950000000000017 -9.2981597418319453
decision_type=2 2 2 2 2 2 2 2 2 2 2 2 2 2 2 2 2 2 2 2 2 2 2 2 2 2 2 2 2 2
left_child=1 2 6 4 7 25 17 -3 24 19 12 -12 -7 26 -15 -16 20 -1 23 -5 21 29 -21 -9 -2 -4 -8 -6 -28 -13
right_child=8 3 5 9 27 10 13 18 -10 -11 11 16 -14 14 15 -17 -18 -19 -20 22 -22 -23 -24 -25 -26 -27 28 -29 -30 -31
leaf_value=0.0084671991507635786 0.02143873583246814 -0.043621474046827417 -0.030197129102839306 -0.049108901489554241 -0.02816898719136034 -0.056767213966029052 0.012208968540849744 -0.021991448400453847 -0.049209504560377038 -0.058356703797537726 -0.061940730269566147 0.011880051531003365 -0.01166346220392458 0.0067538489890390258 -0.041289863980881851 0.001030627677847162 -0.062325003349282364 -0.054955410124781612 0.031630916823417135 -0.0014877783660165135 0.087498004715156841 0.012105033686589708 -0.051248330263494291 0.0037416897123806873 -0.015211722982243388 -0.0068502721575044116 -0.0035270392767690166 -0.057459415658192507 0.021635978698820883 -0.056049320134936936
leaf_weight=252.60279884934425 20007.979628890753 728.42984972149134 688.29778320342302 1279.6418327689171 549.66048679500818 2253.2098023965955 27823.094758853316 865.13185973465443 206.71381298452616 6887.107841335237 344.91131395846605 77.358367785811424 436.13149964809418 10492.465043663979 939.46230866014957 2703.6557570323348 204.56767974793911 567.99764375388622 666.85818685591221 704.09472245723009 80.06197427213192 601.50335746258497 208.65982055664062 1767.0284329354763 266.34644562005997 3561.1309313252568 2213.1015722602606 872.37261228263378 521.88015919923782 221.74337357282639
leaf_count=1329 83724 5671 3836 10780 3747 21373 121777 3902 1713 64068 2761 419 2076 46335 8343 12395 1618 5518 3099 3788 300 2983 1658 7501 1279 16554 8998 7277 2153 1592
internal_value=-0.000124937 -0.0062154 0.00258253 -0.0389047 -0.0162805 -0.0247424 0.00766708 -0.00573394 0.0202483 -0.0524828 -0.0389495 -0.0204795 -0.0494553 0.0084585 0.00246591 -0.00988215 -0.00840559 -0.0354275 0.00263126 -0.0340265 0.00284214 -0.00468692 -0.0128731 -0.00471483 0.0209569 -0.0106337 0.0112304 -0.046144 0.00127327 -0.0384656
internal_weight=88993.2 68512.2 53983.2 14529 5449.48 8468.92 45514.3 4027.45 20481 9079.5 4219.49 1530.15 2689.34 44693.7 14135.6 3643.12 1185.23 820.6 3299.02 2192.4 980.667 900.605 912.755 2632.16 20274.3 4249.43 30558.1 1422.03 2734.98 299.102
internal_count=458567 371851 260360 111491 31197 53512 206848 20173 86716 80294 33122 9673 23449 200001 67073 20738 6912 6847 14502 16226 5294 4994 5446 11403 85003 20390 132928 11024 11151 2011
is_linear=0
shrinkage=0.05


Tree=27
num_leaves=31
num_cat=0
split_feature=2 3 0 0 5 5 5 12 14 14 17 15 15 17 17 7 7 12 11 10 0 0 15 15 9 17 3 14 11 0
split_gain=7586.57 4220.82 4886.74 3236.03 1640.81 1167.91 786.389 687.901 632.154 618.224 634.03 572.304 621.526 522.779 496.43 255.941 302.672 301.685 244.458 211.54 211.14 388.305 202.795 188.245 182.037 157.718 141.623 153.987 136.486 134.627
threshold=-1.9900166274046496 0.70031269337459767 62.500000000000007 57.500000000000007 2.5000000000000004 1.5000000000000002 2.5000000000000004 1.5081717440163118 3.5000000000000004 1.0000000180025095e-35 21.268725976877104 50.100000000000009 49.900000000000006 29.867795545653344 37.251478867694509 -1.0000000180025095e-35 1.0000000180025095e-35 5.7210971400804613 -6.5133562060136851 12220.348154929083 40.500000000000007 72.500000000000014 48.850000000000001 51.250000000000007 12216.919921875002 29.867795545653344 1.4146194552259452 1.0000000180025095e-35 -0.37282265937539422 79.500000000000014
decision_type=2 2 2 2 2 2 2 2 2 2 2 2 2 2 2 2 2 2 2 2 2 2 2 2 2 2 2 2 2 2
left_child=1 9 6 4 5 -2 8 -6 19 20 22 12 -7 -8 -5 -9 17 18 -17 25 -1 23 -11 -22 -14 -3 27 -4 -13 -28
right_child=3 2 26 14 7 11 13 15 -10 10 -12 28 24 -15 -16 16 -18 -19 -20 -21 21 -23 -24 -25 -26 -27 29 -29 -30 -31
leaf_value=0.056748408539067464 -0.060356660735233006 -0.055548420828558279 0.056126151753700171 0.020423052789749055 -0.056431443436545617 -0.047058888698665785 -0.057829317362872057 -0.062353644056586478 0.0048339749375932214 0.018611360175004948 -0.0067597318662879413 -0.0080144109702836534 -0.00020879503404486145 -0.0073847335095348215 -0.05464798627962867 -0.03033270104552482 -0.062711140034825016 0.084261830752845115 0.016339468890292797 0.0053267377237961539 -0.054312828695624295 0.059377171821652135 0.01206467066635856 0.023548226326096305 0.029186994567050498 0.0017899301867248529 -0.055274041157423383 0.019702308571079442 -0.052151886527127836 0.034909298996420111
